1.187589541077613831e-01,9.335897117853164673e-02,-9.385196864604949951e-02,-9.562361985445022583e-02,1.255504935979843140e-01,1.187600940465927124e-01,-1.135515049099922180e-01,9.449528902769088745e-02,-8.043655753135681152e-02,9.867630153894424438e-02,1.355060935020446777e-01,-1.174516528844833374e-01,-9.747058898210525513e-02,-1.270012557506561279e-01,-1.066931337118148804e-01,9.293036907911300659e-02,-1.033301204442977905e-01,-1.319082975387573242e-01,-1.154181212186813354e-01,1.179355308413505554e-01,9.276489168405532837e-02,1.187892630696296692e-01,-9.784077852964401245e-02,1.203388348221778870e-01,1.055991053581237793e-01,1.141041666269302368e-01,-1.070593595504760742e-01,1.126658171415328979e-01,-1.140726208686828613e-01,-1.252184510231018066e-01,-1.145434975624084473e-01,-1.124299466609954834e-01,1.095779836177825928e-01,-9.673947840929031372e-02,1.149511262774467468e-01,-1.261852681636810303e-01,-1.156483739614486694e-01,1.153475716710090637e-01,-1.181054711341857910e-01,-1.207158491015434265e-01,-1.143050193786621094e-01,1.315983682870864868e-01,9.959937632083892822e-02,-9.242270141839981079e-02,1.193559020757675171e-01,-1.183956488966941833e-01,-1.018675640225410461e-01,-1.121179088950157166e-01,-9.335362166166305542e-02,-1.197103187441825867e-01,-7.706815749406814575e-02,1.145502105355262756e-01,8.908917754888534546e-02,-9.746030718088150024e-02,-1.176028251647949219e-01,1.106684878468513489e-01,9.878142178058624268e-02,1.030934229493141174e-01,-1.099085435271263123e-01,-1.158492267131805420e-01,1.064286381006240845e-01,1.114781573414802551e-01,-1.116120815277099609e-01,-1.319272071123123169e-01,-1.039674729108810425e-01,-9.960152208805084229e-02,-1.083269789814949036e-01,-1.294725388288497925e-01,-8.786881715059280396e-02,1.248233988881111145e-01,1.171770766377449036e-01,6.811128556728363037e-02,-9.691081196069717407e-02,7.875082641839981079e-02,-8.608416467905044556e-02,1.012205183506011963e-01,-1.120889112353324890e-01,-9.950122237205505371e-02,1.048180907964706421e-01,7.359666377305984497e-02,-8.491596579551696777e-02,-1.033743321895599365e-01,1.169019490480422974e-01,-1.037004142999649048e-01,-9.614653885364532471e-02,1.143438518047332764e-01,-1.084992215037345886e-01,1.234976872801780701e-01,1.198085844516754150e-01,7.927156984806060791e-02,1.094245091080665588e-01,8.974438160657882690e-02,-1.129795983433723450e-01,-1.111337766051292419e-01,-9.985610842704772949e-02,1.119115799665451050e-01,-1.059361472725868225e-01,1.219036579132080078e-01,1.257825791835784912e-01,1.187405437231063843e-01,1.072954162955284119e-01,1.155131831765174866e-01,-6.977883726358413696e-02,1.046727523207664490e-01,9.433417767286300659e-02,1.063183993101119995e-01,-1.081321313977241516e-01,1.006585061550140381e-01,-1.053208112716674805e-01,-1.073654741048812866e-01,1.017383784055709839e-01,-1.025722995400428772e-01,1.068053990602493286e-01,1.129553243517875671e-01,9.945679455995559692e-02,8.198884874582290649e-02,9.658085554838180542e-02,1.008586063981056213e-01,-8.854533731937408447e-02,-1.107911020517349243e-01,-1.125420108437538147e-01,-9.203489124774932861e-02,-1.248191148042678833e-01,9.773612767457962036e-02,1.175094321370124817e-01,1.242332011461257935e-01,-1.161012798547744751e-01,1.089392527937889099e-01,-1.089041307568550110e-01,1.128995865583419800e-01,-6.207720562815666199e-02,-1.118723154067993164e-01,-1.270368546247482300e-01,1.205939799547195435e-01,1.204808205366134644e-01,-1.213032230734825134e-01,1.159356385469436646e-01,1.138526797294616699e-01,-1.149390563368797302e-01,-1.228402107954025269e-01,-9.727788716554641724e-02,1.103192195296287537e-01,8.710377663373947144e-02,1.180699244141578674e-01,9.768268465995788574e-02,1.135637238621711731e-01,1.326175183057785034e-01,-1.009442359209060669e-01,-1.259434968233108521e-01,1.075084805488586426e-01,-1.062245145440101624e-01,9.870006144046783447e-02,-1.018779054284095764e-01,1.136520206928253174e-01,1.081257164478302002e-01,1.173083782196044922e-01,1.125762015581130981e-01,-9.465188533067703247e-02,-8.345589041709899902e-02,1.316084563732147217e-01,1.102574616670608521e-01,8.986871689558029175e-02,-1.237616911530494690e-01,1.142661422491073608e-01,-1.232147589325904846e-01,-1.214403063058853149e-01,1.189467906951904297e-01,9.470655769109725952e-02,-9.726207703351974487e-02,9.339420497417449951e-02,1.026822701096534729e-01,-9.251774102449417114e-02,-1.186227947473526001e-01,1.230860725045204163e-01,1.292624920606613159e-01,-1.000914573669433594e-01,8.821354061365127563e-02,-1.171323582530021667e-01,1.138617619872093201e-01,-1.076206862926483154e-01,1.128167882561683655e-01,9.351531416177749634e-02,8.101930469274520874e-02,-1.105713173747062683e-01,-1.112457960844039917e-01,1.084294319152832031e-01,6.508163362741470337e-02,-1.074635237455368042e-01,1.172179803252220154e-01,-1.132492199540138245e-01,9.861846268177032471e-02,1.259042620658874512e-01,-1.108466237783432007e-01,1.175550743937492371e-01,-6.171980127692222595e-02,1.174092441797256470e-01,1.156294867396354675e-01,1.132492870092391968e-01,-1.216077879071235657e-01,9.663480520248413086e-02
2.578039467334747314e-02,2.927602455019950867e-02,-3.055926598608493805e-02,-2.568831108510494232e-02,4.243888705968856812e-02,2.954454720020294189e-02,-3.545754030346870422e-02,3.848671913146972656e-02,-3.040585480630397797e-02,2.692900225520133972e-02,3.966032341122627258e-02,-2.473428845405578613e-02,-3.326955437660217285e-02,-4.372202977538108826e-02,-2.194792591035366058e-02,3.388229012489318848e-02,-2.744334004819393158e-02,-3.353611007332801819e-02,-2.199381031095981598e-02,3.717263042926788330e-02,3.068859688937664032e-02,3.824257105588912964e-02,-3.058938868343830109e-02,2.800976485013961792e-02,4.006956517696380615e-02,3.230310603976249695e-02,-3.211443498730659485e-02,2.825313620269298553e-02,-2.789894677698612213e-02,-3.058975934982299805e-02,-2.315036766231060028e-02,-3.805586323142051697e-02,2.590550109744071960e-02,-1.637722551822662354e-02,2.928994223475456238e-02,-2.987317182123661041e-02,-3.627142682671546936e-02,2.443166449666023254e-02,-2.540941536426544189e-02,-3.812487423419952393e-02,-2.832809090614318848e-02,4.132326692342758179e-02,2.059271000325679779e-02,-3.482883423566818237e-02,4.228079319000244141e-02,-4.436394572257995605e-02,-3.682365268468856812e-02,-3.702476620674133301e-02,-2.471992745995521545e-02,-2.728437632322311401e-02,-1.295933499932289124e-02,2.926214970648288727e-02,3.474221006035804749e-02,-3.245149552822113037e-02,-2.792011387646198273e-02,4.054148495197296143e-02,3.883532062172889709e-02,2.893943153321743011e-02,-2.382989414036273956e-02,-4.241371899843215942e-02,3.115382976830005646e-02,2.534593641757965088e-02,-3.999735042452812195e-02,-3.171282261610031128e-02,-3.048938885331153870e-02,-3.709661588072776794e-02,-2.866281569004058838e-02,-3.252670168876647949e-02,-2.605218812823295593e-02,3.129482641816139221e-02,2.680867537856101990e-02,1.788153126835823059e-02,-3.126972541213035583e-02,2.467080950736999512e-02,-1.593252830207347870e-02,3.569288551807403564e-02,-4.190294817090034485e-02,-2.574810758233070374e-02,3.925876319408416748e-02,9.911973960697650909e-03,-1.869983598589897156e-02,-4.026280343532562256e-02,2.912938222289085388e-02,-2.669713646173477173e-02,-2.182364463806152344e-02,2.878907136619091034e-02,-3.827208280563354492e-02,2.760973013937473297e-02,3.156526386737823486e-02,2.905419655144214630e-02,2.816040813922882080e-02,1.845550723373889923e-02,-2.280147746205329895e-02,-2.187895774841308594e-02,-4.216380417346954346e-02,2.471787855029106140e-02,-2.483225613832473755e-02,3.125289455056190491e-02,4.493290558457374573e-02,3.370928019285202026e-02,2.218178659677505493e-02,4.094549641013145447e-02,-1.717846840620040894e-02,2.473899535834789276e-02,2.588208951056003571e-02,3.747171908617019653e-02,-4.173012077808380127e-02,3.354581445455551147e-02,-2.984110452234745026e-02,-2.632637321949005127e-02,3.097219951450824738e-02,-2.084100060164928436e-02,3.991916030645370483e-02,3.558537364006042480e-02,2.908650226891040802e-02,1.255545113235712051e-02,3.259668871760368347e-02,3.185327723622322083e-02,-3.013263270258903503e-02,-3.708356618881225586e-02,-2.516484633088111877e-02,-3.451853245496749878e-02,-3.851789608597755432e-02,3.388684988021850586e-02,3.626448661088943481e-02,3.092533536255359650e-02,-3.727112710475921631e-02,3.784896805882453918e-02,-3.659342974424362183e-02,3.074421361088752747e-02,-2.750669792294502258e-02,-2.281188964843750000e-02,-3.951453045010566711e-02,4.169910773634910583e-02,3.641115128993988037e-02,-3.801691904664039612e-02,2.352643385529518127e-02,1.994808763265609741e-02,-3.502592071890830994e-02,-2.803586609661579132e-02,-1.767645217478275299e-02,1.892337389290332794e-02,2.101911976933479309e-02,2.387632243335247040e-02,2.698826417326927185e-02,2.534922212362289429e-02,2.950615435838699341e-02,-2.603142708539962769e-02,-4.026234149932861328e-02,2.632021158933639526e-02,-2.305782772600650787e-02,3.879459202289581299e-02,-3.469135984778404236e-02,3.049464710056781769e-02,3.931600973010063171e-02,3.396617993712425232e-02,4.244692996144294739e-02,-3.297833725810050964e-02,-2.443733252584934235e-02,3.137755766510963440e-02,4.098912701010704041e-02,1.781031303107738495e-02,-2.435289137065410614e-02,3.744733333587646484e-02,-2.809260413050651550e-02,-3.101003915071487427e-02,4.478537663817405701e-02,2.458782866597175598e-02,-3.094571642577648163e-02,3.792611137032508850e-02,3.453589975833892822e-02,-3.721176087856292725e-02,-2.568433620035648346e-02,3.900092095136642456e-02,3.557021543383598328e-02,-2.299734763801097870e-02,1.829177141189575195e-02,-4.112988710403442383e-02,2.596067450940608978e-02,-3.690643236041069031e-02,3.931222483515739441e-02,2.824228629469871521e-02,1.251574419438838959e-02,-4.326431080698966980e-02,-3.130748122930526733e-02,3.492318838834762573e-02,1.252191979438066483e-02,-3.659336268901824951e-02,3.917157649993896484e-02,-3.587845712900161743e-02,3.082166612148284912e-02,2.991914190351963043e-02,-3.197183459997177124e-02,2.497240714728832245e-02,-1.731915585696697235e-02,3.499377891421318054e-02,3.991513326764106750e-02,3.717749193310737610e-02,-3.193451836705207825e-02,2.962030284106731415e-02
-5.079524707980453968e-04,1.353530306369066238e-02,-6.327429786324501038e-03,-8.402695879340171814e-03,-9.855884127318859100e-03,-5.359123460948467255e-03,3.691150108352303505e-03,1.164076197892427444e-02,-1.474036555737257004e-02,1.129785738885402679e-02,-7.691971026360988617e-03,-1.095977146178483963e-02,4.236156586557626724e-03,1.264310069382190704e-02,-1.733375829644501209e-03,-2.283851150423288345e-03,-9.573524817824363708e-03,8.801246993243694305e-03,-3.776174504309892654e-03,-1.520096417516469955e-02,1.098528970032930374e-02,-5.031532142311334610e-03,-1.450404897332191467e-02,-1.216932898387312889e-03,-1.451397838536649942e-04,3.564912592992186546e-03,-8.968397974967956543e-03,-7.557987235486507416e-03,-8.996447431854903698e-04,6.525503937155008316e-03,1.868456718511879444e-03,6.064994260668754578e-03,-6.405822001397609711e-03,-2.057625725865364075e-02,-1.110696932300925255e-03,1.246653124690055847e-02,6.028866861015558243e-03,6.108012516051530838e-03,-9.967756457626819611e-03,4.897254519164562225e-03,1.134181767702102661e-02,-1.301010604947805405e-02,9.529667906463146210e-03,-4.271273501217365265e-03,-8.834710344672203064e-03,1.229525450617074966e-02,8.381410501897335052e-03,8.233885280787944794e-03,-1.627617143094539642e-02,4.658252000808715820e-03,-2.887455001473426819e-02,-1.470928778871893883e-03,7.733296137303113937e-03,6.709408015012741089e-03,5.564826540648937225e-03,-4.482487216591835022e-03,7.576267700642347336e-03,5.490714218467473984e-03,5.339832976460456848e-03,3.707951400429010391e-03,1.035844907164573669e-02,5.926631391048431396e-03,2.154747489839792252e-03,8.615952916443347931e-03,-1.038416661322116852e-02,-7.877098396420478821e-03,2.301506930962204933e-03,6.944464519619941711e-03,-2.164807915687561035e-02,-1.663476973772048950e-02,-1.229940168559551239e-02,1.428318209946155548e-02,-4.635514225810766220e-03,1.868225261569023132e-02,-9.286361746490001678e-03,6.525153294205665588e-04,6.507444661110639572e-03,8.079152321442961693e-04,1.970920129679143429e-04,2.508678473532199860e-02,-1.725023612380027771e-02,6.003523245453834534e-03,-1.262948382645845413e-02,-6.436865776777267456e-03,2.098584547638893127e-03,-9.079288691282272339e-03,4.456488415598869324e-03,5.030299536883831024e-03,-1.070129126310348511e-02,1.399272121489048004e-02,-4.471692955121397972e-04,2.508539520204067230e-02,-2.743290271610021591e-03,7.364423014223575592e-03,9.141155518591403961e-03,2.430419204756617546e-03,1.241376623511314392e-02,1.129189273342490196e-03,-5.136545747518539429e-03,1.179075567051768303e-03,1.799604855477809906e-03,-4.203598946332931519e-03,-1.968719623982906342e-02,-1.074934611096978188e-03,5.886334460228681564e-03,-1.295686000958085060e-03,-1.735107274726033211e-03,-6.967217661440372467e-03,1.074984949082136154e-02,-8.670849725604057312e-03,8.767825202085077763e-04,-1.252990309149026871e-02,-7.718917913734912872e-03,-1.257648039609193802e-02,3.004757920280098915e-03,1.792211271822452545e-02,7.574029266834259033e-03,1.123812701553106308e-02,-1.933485083281993866e-02,3.417127300053834915e-03,-4.395644180476665497e-03,-1.633900590240955353e-02,1.553372666239738464e-02,-9.661224670708179474e-03,-8.857398061081767082e-04,-4.860769840888679028e-04,1.507310895249247551e-03,3.721829969435930252e-03,6.958113051950931549e-03,-4.392251837998628616e-03,-2.904077060520648956e-02,5.085987970232963562e-03,4.934421274811029434e-03,-4.886939190328121185e-03,-1.916924491524696350e-02,-6.480341777205467224e-03,-3.243328072130680084e-03,-3.811470232903957367e-03,-2.892353804782032967e-04,1.211739494465291500e-03,-9.982748888432979584e-03,3.344116732478141785e-03,9.379630908370018005e-03,-2.470118459314107895e-03,3.989603370428085327e-03,-6.172338966280221939e-03,-1.473241765052080154e-02,-4.369777627289295197e-03,7.253898773342370987e-03,3.948256839066743851e-03,-1.421582535840570927e-03,6.002523470669984818e-03,-9.748988784849643707e-03,5.357663147151470184e-03,-1.076800189912319183e-02,1.361150410957634449e-03,-1.433222740888595581e-02,-1.647091121412813663e-03,-7.411410566419363022e-03,-1.192717067897319794e-02,-3.806974971666932106e-03,5.937466397881507874e-03,1.486554741859436035e-03,-8.302368223667144775e-04,7.407648488879203796e-03,1.294175442308187485e-02,-1.112710032612085342e-02,5.586239043623209000e-03,-1.590636186301708221e-02,-2.996844472363591194e-03,6.826261058449745178e-03,-2.721413271501660347e-03,6.045969203114509583e-03,-8.048481540754437447e-04,-1.229333039373159409e-02,5.483786109834909439e-03,1.996760070323944092e-02,1.440101955085992813e-02,1.002643490210175514e-03,-5.829025758430361748e-05,-5.260576028376817703e-03,1.744584442349150777e-04,2.502778917551040649e-02,1.300803106278181076e-02,-2.630246104672551155e-03,-8.521719835698604584e-03,2.747363783419132233e-02,1.272308640182018280e-03,-6.827214732766151428e-03,1.215426810085773468e-02,3.302438184618949890e-03,-8.161857724189758301e-03,2.469428814947605133e-03,-1.111456099897623062e-02,-2.062550559639930725e-02,-1.401714631356298923e-03,-1.228541601449251175e-02,8.098298567347228527e-04,1.061510201543569565e-02,-2.285097725689411163e-03
-1.949649676680564880e-02,-2.982388623058795929e-02,3.489323332905769348e-02,1.572525501251220703e-02,-2.677490748465061188e-02,-2.457616850733757019e-02,2.744575217366218567e-02,-2.371176145970821381e-02,2.991842105984687805e-02,-2.566243708133697510e-02,-2.947168610990047455e-02,1.560510136187076569e-02,2.316541597247123718e-02,3.117242828011512756e-02,3.263142704963684082e-02,-2.925260178744792938e-02,3.113642521202564240e-02,3.083478659391403198e-02,1.707330718636512756e-02,-2.967979758977890015e-02,-2.887982130050659180e-02,-1.871241256594657898e-02,2.430272102355957031e-02,-3.380093723535537720e-02,-3.229906782507896423e-02,-2.234418690204620361e-02,3.338843956589698792e-02,-2.472369186580181122e-02,1.611664332449436188e-02,2.277817577123641968e-02,3.689370676875114441e-02,2.281045541167259216e-02,-2.672393433749675751e-02,2.217237651348114014e-02,-2.183808758854866028e-02,3.104775771498680115e-02,3.138409927487373352e-02,-2.640179544687271118e-02,3.420728072524070740e-02,3.080132231116294861e-02,2.359277568757534027e-02,-2.452623099088668823e-02,-2.034914493560791016e-02,1.851429231464862823e-02,-2.189616113901138306e-02,3.876574710011482239e-02,2.324200980365276337e-02,2.691694162786006927e-02,1.623951084911823273e-02,1.871618814766407013e-02,2.036253362894058228e-02,-3.531686216592788696e-02,-3.032561764121055603e-02,2.272641658782958984e-02,2.256392873823642731e-02,-3.638419136404991150e-02,-3.491742536425590515e-02,-1.624139584600925446e-02,3.027719259262084961e-02,3.264588490128517151e-02,-2.848069183528423309e-02,-3.420642018318176270e-02,3.164684772491455078e-02,2.895473875105381012e-02,3.276287391781806946e-02,1.705282740294933319e-02,3.307686373591423035e-02,2.524453029036521912e-02,2.476289682090282440e-02,-3.577648103237152100e-02,-2.536467835307121277e-02,-1.490997709333896637e-02,2.282409556210041046e-02,-3.190715983510017395e-02,2.057176455855369568e-02,-2.735849469900131226e-02,3.507979586720466614e-02,1.813779771327972412e-02,-3.304780647158622742e-02,-1.392154023051261902e-02,2.231604047119617462e-02,3.346840292215347290e-02,-3.219160065054893494e-02,3.091430291533470154e-02,1.553533785045146942e-02,-3.322911635041236877e-02,3.485670685768127441e-02,-3.348724916577339172e-02,-3.284600377082824707e-02,-1.997901685535907745e-02,-2.615363895893096924e-02,-2.051674015820026398e-02,2.961569838225841522e-02,2.111812122166156769e-02,2.018820680677890778e-02,-2.570697478950023651e-02,3.113443963229656219e-02,-1.800405234098434448e-02,-2.186217904090881348e-02,-2.064602449536323547e-02,-2.423030883073806763e-02,-4.003478214144706726e-02,1.856186985969543457e-02,-1.975599490106105804e-02,-2.594989724457263947e-02,-1.737482473254203796e-02,3.874668478965759277e-02,-2.095037139952182770e-02,3.666328266263008118e-02,2.067404985427856445e-02,-2.395689859986305237e-02,1.624080725014209747e-02,-3.241633996367454529e-02,-2.315255440771579742e-02,-2.015344426035881042e-02,-1.118785608559846878e-02,-2.474358864128589630e-02,-2.602928504347801208e-02,1.716027595102787018e-02,3.321891650557518005e-02,1.996616832911968231e-02,2.268008142709732056e-02,3.914351761341094971e-02,-2.680996060371398926e-02,-2.341629192233085632e-02,-3.682351112365722656e-02,2.530553564429283142e-02,-2.576125040650367737e-02,2.171273715794086456e-02,-2.300404012203216553e-02,1.000026240944862366e-02,2.862855419516563416e-02,3.448741137981414795e-02,-2.272526174783706665e-02,-2.540384419262409210e-02,3.589544072747230530e-02,-2.916352823376655579e-02,-1.792808622121810913e-02,3.232005983591079712e-02,3.017881698906421661e-02,2.696006558835506439e-02,-1.875149086117744446e-02,-1.279907301068305969e-02,-2.463084273040294647e-02,-2.504882402718067169e-02,-2.007972076535224915e-02,-2.462207712233066559e-02,2.558927237987518311e-02,2.981745824217796326e-02,-3.031329065561294556e-02,3.220577910542488098e-02,-1.992194354534149170e-02,2.812823466956615448e-02,-3.578389436006546021e-02,-2.768309973180294037e-02,-2.037364430725574493e-02,-2.819727174937725067e-02,2.503424324095249176e-02,2.992914244532585144e-02,-2.975827455520629883e-02,-1.852163113653659821e-02,-2.428741008043289185e-02,2.170456387102603912e-02,-3.306942433118820190e-02,3.557506948709487915e-02,1.981457136571407318e-02,-3.709715604782104492e-02,-2.375257574021816254e-02,2.541277371346950531e-02,-2.281685918569564819e-02,-2.602069079875946045e-02,2.562016248703002930e-02,2.304330281913280487e-02,-3.528061509132385254e-02,-3.008961677551269531e-02,3.139775991439819336e-02,-1.413792837411165237e-02,2.778661064803600311e-02,-1.811972074210643768e-02,3.065903484821319580e-02,-2.600110881030559540e-02,-2.389745600521564484e-02,-2.065310627222061157e-02,3.621730953454971313e-02,2.209393680095672607e-02,-3.799565508961677551e-02,-1.448410842567682266e-02,2.843046560883522034e-02,-2.286460995674133301e-02,2.919742092490196228e-02,-2.811204083263874054e-02,-2.968467213213443756e-02,2.178996056318283081e-02,-3.856037184596061707e-02,1.459178049117326736e-02,-3.203465044498443604e-02,-3.395798802375793457e-02,-1.839724741876125336e-02,2.091781422495841980e-02,-3.663093596696853638e-02
-6.308486219495534897e-03,-1.270452328026294708e-02,1.097204256802797318e-02,-1.825910061597824097e-02,-1.163053698837757111e-02,1.409807591699063778e-03,1.296248100697994232e-02,-7.195980753749608994e-03,-1.301704347133636475e-02,1.042190357111394405e-03,-9.345080703496932983e-03,-5.677217617630958557e-03,-3.669677826110273600e-04,3.965926356613636017e-03,-1.740154577419161797e-03,-1.279207062907516956e-03,1.233706425409764051e-04,8.402287028729915619e-03,-4.532431252300739288e-03,-4.446572624146938324e-03,6.276099476963281631e-03,-1.195842307060956955e-02,-1.427230797708034515e-02,-7.689971476793289185e-03,-8.118154481053352356e-03,-6.782598327845335007e-03,2.683690283447504044e-03,-1.433974411338567734e-02,1.081188861280679703e-02,4.140099044889211655e-03,1.774000376462936401e-02,4.846642259508371353e-03,-4.823736380785703659e-03,-7.881443016231060028e-03,-1.668780110776424408e-02,1.507842540740966797e-02,1.520514953881502151e-02,8.969803340733051300e-03,-4.134430200792849064e-04,1.294243521988391876e-02,1.106428913772106171e-02,-1.490113139152526855e-02,4.920206498354673386e-03,3.054397180676460266e-03,-1.292931661009788513e-02,1.781038753688335419e-02,1.652116142213344574e-02,1.336235180497169495e-02,7.415648433379828930e-04,1.011478994041681290e-02,-1.882564462721347809e-02,7.873292779549956322e-04,3.750544274225831032e-04,1.570569910109043121e-02,6.893114186823368073e-03,-1.434838958084583282e-02,-1.443973183631896973e-02,8.790232241153717041e-04,9.651942178606987000e-03,9.449686855077743530e-03,2.083233557641506195e-03,5.185864400118589401e-03,7.952960208058357239e-03,1.327021047472953796e-02,8.203217759728431702e-03,-1.331109902821481228e-03,7.599931675940752029e-03,2.120121009647846222e-02,-1.432473026216030121e-02,-1.687449589371681213e-02,-3.301750868558883667e-03,2.833392238244414330e-03,1.281542330980300903e-02,-2.170440973713994026e-03,-1.628206484019756317e-02,1.928631099872291088e-03,1.470975228585302830e-03,-3.904710756614804268e-03,-4.171270411461591721e-03,1.528706867247819901e-02,-7.930953986942768097e-03,-2.721561468206346035e-04,-8.822817355394363403e-03,8.390783332288265228e-03,8.570005185902118683e-03,-9.362771175801753998e-03,1.217263750731945038e-02,-1.658556982874870300e-02,-1.299296878278255463e-02,1.142694056034088135e-02,-2.203292911872267723e-03,7.047256920486688614e-03,5.677478853613138199e-03,7.132758386433124542e-03,7.828232483007013798e-04,-9.873181581497192383e-03,1.207368541508913040e-02,-1.163063850253820419e-02,-1.443889457732439041e-02,-1.158015988767147064e-02,2.175092464312911034e-03,-6.269867531955242157e-03,-1.844402402639389038e-02,-6.701453123241662979e-03,7.973435334861278534e-03,3.667580196633934975e-03,1.396075077354907990e-02,-3.286576597020030022e-03,1.008853688836097717e-02,1.630710251629352570e-02,2.760729519650340080e-03,1.599770766915753484e-04,-1.139669492840766907e-02,-1.394879352301359177e-02,-4.330622497946023941e-03,1.938439346849918365e-02,6.387077271938323975e-03,-8.700837381184101105e-03,3.093916689977049828e-03,2.709275577217340469e-03,1.884373486973345280e-03,-2.411771332845091820e-03,1.328491792082786560e-02,-1.947587728500366211e-02,-2.252288395538926125e-03,-1.329710707068443298e-02,-7.538539823144674301e-03,-5.034938454627990723e-03,1.735399477183818817e-02,-1.303514279425144196e-02,-1.912582665681838989e-02,1.136014703661203384e-02,1.439080201089382172e-02,-2.302736043930053711e-03,-6.694587878882884979e-03,1.166300754994153976e-02,-1.056333910673856735e-02,8.077878504991531372e-03,7.116673514246940613e-03,3.804764710366725922e-03,-7.083038799464702606e-03,7.909641601145267487e-03,1.152183767408132553e-02,-5.688981153070926666e-03,2.869421849027276039e-03,-4.948070272803306580e-04,-1.906352676451206207e-02,-4.522878210991621017e-03,2.996578346937894821e-03,5.614765104837715626e-04,-1.170987728983163834e-03,3.939675632864236832e-03,2.428618026897311211e-03,-9.234835742972791195e-04,-1.567465066909790039e-02,-4.807670135051012039e-03,-9.115643799304962158e-03,9.320877492427825928e-03,2.721278695389628410e-03,-1.128733064979314804e-02,-1.304473821073770523e-02,5.172202829271554947e-03,1.163897197693586349e-02,-3.119644825346767902e-04,6.906213238835334778e-03,4.589326272252947092e-04,-1.395102962851524353e-02,1.028627506457269192e-03,3.300940850749611855e-03,2.110448695020750165e-04,3.282582620158791542e-04,1.069822901627048850e-04,-5.660237278789281845e-03,2.369161462411284447e-03,-1.357091218233108521e-02,-2.701397053897380829e-03,2.330670133233070374e-02,1.257390901446342468e-02,1.020775642246007919e-03,9.161697700619697571e-03,-1.161464024335145950e-02,-2.654488664120435715e-03,1.111677475273609161e-02,1.696650683879852295e-02,-8.833259926177561283e-04,-1.531125418841838837e-02,9.834901429712772369e-03,2.485365606844425201e-03,-1.152407098561525345e-02,6.809141952544450760e-03,-1.276131812483072281e-02,-1.488847751170396805e-02,1.020190957933664322e-02,-9.649699553847312927e-03,-1.731442660093307495e-02,-1.004932355135679245e-02,-8.610118180513381958e-03,7.877252995967864990e-03,6.235124543309211731e-03,-1.942485384643077850e-02
5.724572576582431793e-03,-5.777385551482439041e-03,-1.078368281014263630e-03,-1.574296876788139343e-02,1.135246176272630692e-02,9.077828377485275269e-03,2.475899178534746170e-03,-4.864284303039312363e-03,-9.233158780261874199e-04,4.499308299273252487e-03,4.239558707922697067e-03,-7.422256749123334885e-04,4.087566048838198185e-05,-1.239223522134125233e-03,-1.969517674297094345e-03,1.198983285576105118e-03,-6.831845734268426895e-03,2.116867806762456894e-03,3.637834219262003899e-03,1.109795738011598587e-02,1.903733424842357635e-02,8.955767378211021423e-03,-1.641784422099590302e-02,6.795545108616352081e-03,-2.758172340691089630e-03,8.556885877624154091e-04,-2.870972268283367157e-03,-2.449186984449625015e-03,-1.219471683725714684e-03,-4.978637676686048508e-03,7.597122457809746265e-04,-6.265942938625812531e-03,5.279879085719585419e-03,-1.945548923686146736e-03,4.002063069492578506e-03,4.180305171757936478e-03,-1.167115848511457443e-02,1.046508923172950745e-02,-1.119687873870134354e-02,4.368136636912822723e-03,-3.653553547337651253e-03,-4.143942613154649734e-03,9.784062393009662628e-03,2.618899336084723473e-03,3.113285405561327934e-03,-9.628050029277801514e-03,-4.438187170308083296e-04,-7.700276095420122147e-03,2.208954421803355217e-03,-1.333376951515674591e-02,-1.418223883956670761e-02,5.786313675343990326e-03,-2.376699587330222130e-03,-7.487962953746318817e-03,-8.235975168645381927e-03,4.316791601013392210e-04,-2.918496727943420410e-03,8.154626004397869110e-03,-9.225069545209407806e-03,1.477562473155558109e-03,7.628816645592451096e-03,6.240394897758960724e-03,-6.991427391767501831e-03,-1.176696177572011948e-02,-6.901331711560487747e-03,-3.311626613140106201e-03,4.685310646891593933e-03,6.503562908619642258e-04,-2.398975193500518799e-02,1.022022496908903122e-02,1.133353635668754578e-02,1.195263303816318512e-02,-5.677699809893965721e-04,1.189110917039215565e-03,-1.078331493772566319e-03,3.948361612856388092e-03,1.372455619275569916e-03,-7.582312449812889099e-03,7.312902715057134628e-03,2.537159435451030731e-02,-1.169128715991973877e-02,-6.393804680556058884e-03,-3.335490124300122261e-03,-1.043609064072370529e-02,9.873094968497753143e-04,1.715606544166803360e-03,-4.628598224371671677e-03,6.343720946460962296e-03,-3.548506065271794796e-04,2.052707783877849579e-02,9.619314223527908325e-03,1.525103580206632614e-02,-3.199525177478790283e-03,-4.410029388964176178e-03,3.929655533283948898e-03,9.354749694466590881e-03,4.772715037688612938e-04,1.617991831153631210e-03,9.496386162936687469e-03,2.937718527391552925e-04,8.778213523328304291e-03,3.773129719775170088e-04,-8.940680883824825287e-03,5.749364499934017658e-04,6.075066048651933670e-03,1.167199807241559029e-03,-1.265175826847553253e-02,3.857863484881818295e-04,2.059924008790403605e-04,1.050475286319851875e-03,6.818996276706457138e-03,6.997420568950474262e-04,-3.726199734956026077e-03,6.908979732543230057e-03,1.150861615315079689e-03,7.993759587407112122e-03,7.607896346598863602e-03,4.836144391447305679e-03,-1.106278598308563232e-02,-1.245907228440046310e-02,-2.361536957323551178e-03,-7.963586598634719849e-03,1.141641187132336199e-04,4.167931620031595230e-03,-2.569339238107204437e-03,7.735134568065404892e-03,-1.152547728270292282e-02,2.996159717440605164e-03,-2.420480363070964813e-03,1.130746025592088699e-02,-9.242621250450611115e-03,1.464458764530718327e-03,-1.277984678745269775e-02,-2.993122674524784088e-03,4.759878385812044144e-03,-1.565552898682653904e-03,-8.870279998518526554e-05,8.984567597508430481e-03,-7.042758632451295853e-03,-8.559006266295909882e-03,-5.228228867053985596e-03,3.389618592336773872e-03,1.299969502724707127e-03,-4.204013384878635406e-03,1.085705496370792389e-02,1.046121027320623398e-02,1.649133162572979927e-03,-9.011946385726332664e-04,-4.046858288347721100e-03,-1.908532576635479927e-03,-4.656631965190172195e-03,1.695498591288924217e-03,-1.139709725975990295e-03,1.466982066631317139e-03,8.013735525310039520e-03,3.201593644917011261e-03,3.991129342466592789e-03,-1.441734639229252934e-05,-2.017802558839321136e-03,5.419015418738126755e-03,-2.876793500036001205e-03,5.841157864779233932e-03,-9.960980154573917389e-03,7.808270398527383804e-03,-8.227683603763580322e-03,1.681666122749447823e-03,1.124008675105869770e-03,4.061364103108644485e-03,-9.845537133514881134e-03,3.492954885587096214e-03,9.814962744712829590e-03,5.268334411084651947e-03,3.989592660218477249e-03,9.895851835608482361e-03,5.236128810793161392e-03,-1.020762510597705841e-02,1.507158018648624420e-02,-7.353269029408693314e-03,2.310900017619132996e-03,4.498666152358055115e-03,4.964426159858703613e-03,8.999900892376899719e-03,6.255633663386106491e-03,-9.566793218255043030e-03,-8.293918333947658539e-03,-3.837835043668746948e-03,1.774339191615581512e-02,-1.334221288561820984e-02,8.260739035904407501e-03,-1.088844239711761475e-02,1.009125635027885437e-02,-5.494330078363418579e-03,-5.500066559761762619e-03,1.055720075964927673e-02,-1.229281350970268250e-02,5.279393866658210754e-03,1.100451778620481491e-02,-9.666378027759492397e-04,-1.049268338829278946e-02,6.721100362483412027e-06
1.230254117399454117e-02,1.469547022134065628e-02,-7.294890470802783966e-03,-2.175980992615222931e-02,2.914603566750884056e-03,1.842187158763408661e-02,-2.135765273123979568e-03,1.056986744515597820e-03,-9.203702211380004883e-03,2.238542586565017700e-02,1.470154523849487305e-02,-6.888110656291246414e-03,-7.788933813571929932e-03,-9.919174015522003174e-03,-8.388358168303966522e-03,1.690630987286567688e-02,-1.317074801772832870e-02,-1.809716224670410156e-02,-1.935740001499652863e-02,3.207064233720302582e-03,1.893903873860836029e-02,7.164492271840572357e-03,-2.275290712714195251e-02,3.587645711377263069e-03,1.074311323463916779e-02,4.778520669788122177e-03,-7.763454224914312363e-03,9.833587100729346275e-04,-1.462725084275007248e-02,-8.273472776636481285e-04,-3.211503382772207260e-03,-1.805933006107807159e-02,1.313969492912292480e-03,-2.391280792653560638e-02,2.771513769403100014e-03,-1.505454652942717075e-03,-2.608005423098802567e-03,1.014195755124092102e-02,-1.904123649001121521e-02,-1.950755715370178223e-02,-1.810741983354091644e-02,1.858130563050508499e-03,8.045084774494171143e-03,-1.350703928619623184e-02,1.624275371432304382e-02,-1.626695878803730011e-02,-1.114341546781361103e-03,-2.107023727148771286e-03,-2.228002250194549561e-02,-1.268882583826780319e-02,-7.774964440613985062e-03,1.377585157752037048e-02,1.741833239793777466e-02,-5.977168679237365723e-03,-1.392925041727721691e-03,4.575408063828945160e-03,1.797703653573989868e-02,1.865559816360473633e-02,-6.040544249117374420e-03,-6.736087612807750702e-03,8.234711363911628723e-03,2.363937674090266228e-03,-1.196715421974658966e-02,-3.821630496531724930e-03,-1.120014674961566925e-02,-5.264637526124715805e-03,-9.229717776179313660e-03,-6.835745647549629211e-03,-8.239322341978549957e-03,1.251315791159868240e-02,1.560777146369218826e-02,6.934713106602430344e-03,-1.060514990240335464e-02,1.928565464913845062e-02,-2.065079659223556519e-02,1.879315264523029327e-02,-7.350856903940439224e-03,-5.768215283751487732e-03,1.137505844235420227e-02,1.499652210623025894e-02,-2.543455176055431366e-02,-2.553587255533784628e-04,2.890854142606258392e-03,-1.666419208049774170e-03,-1.991307176649570465e-02,1.490523340180516243e-03,-9.122916497290134430e-03,9.586110711097717285e-03,8.072133176028728485e-03,9.068678133189678192e-03,8.002877235412597656e-03,7.008448708802461624e-03,-3.577230032533407211e-03,-4.868817515671253204e-03,-5.747880786657333374e-03,1.725983060896396637e-02,-2.283677225932478905e-03,9.133693762123584747e-03,1.759084057994186878e-03,1.410551648586988449e-02,1.113524939864873886e-02,1.682568900287151337e-02,-2.352134883403778076e-02,6.562955677509307861e-03,1.817603968083858490e-02,1.503738295286893845e-02,-7.989405421540141106e-04,4.363460466265678406e-03,-1.286173891276121140e-02,-1.575422659516334534e-02,1.053861808031797409e-02,-6.434525828808546066e-03,7.377544417977333069e-03,9.190287441015243530e-03,4.832291975617408752e-03,2.224224619567394257e-02,1.639399863779544830e-02,1.621511392295360565e-02,-3.439614316448569298e-03,-9.896841831505298615e-03,-2.283209702000021935e-03,-7.136330939829349518e-03,-1.556194666773080826e-02,4.037532489746809006e-03,1.919082552194595337e-02,1.711383834481239319e-02,-7.097464520484209061e-03,2.953962655737996101e-03,-1.015797909349203110e-02,4.213061183691024780e-03,-1.288416050374507904e-02,-1.655616797506809235e-02,-1.774060353636741638e-02,5.207434762269258499e-03,5.038587842136621475e-04,-4.165346268564462662e-03,1.264361664652824402e-02,9.549694135785102844e-03,-1.977498456835746765e-02,-1.171477604657411575e-02,-5.193191580474376678e-03,4.509237594902515411e-03,7.363380864262580872e-03,1.385403797030448914e-02,4.717814270406961441e-03,1.127673778682947159e-02,1.036263257265090942e-02,-8.883716538548469543e-03,-5.708381533622741699e-03,4.848140291869640350e-03,-1.688819006085395813e-02,3.493912285193800926e-03,-1.232147589325904846e-02,1.614670641720294952e-02,9.986511431634426117e-03,9.136488661170005798e-03,9.736492298543453217e-03,-6.791213061660528183e-03,-2.268096618354320526e-02,1.183928688988089561e-03,1.146334782242774963e-02,1.201173011213541031e-02,-3.937811125069856644e-03,7.342191878706216812e-03,-3.831415961030870676e-04,-1.120031345635652542e-02,1.712528057396411896e-03,1.814724691212177277e-02,-1.705628260970115662e-02,5.201338790357112885e-03,1.333680469542741776e-02,-1.903655193746089935e-02,-9.975128807127475739e-03,1.163372118026018143e-02,6.044428329914808273e-03,-1.659250445663928986e-02,1.458965893834829330e-02,-1.350628118962049484e-02,8.650477044284343719e-03,-1.645805686712265015e-02,1.584719866514205933e-02,1.789489202201366425e-02,1.251392066478729248e-02,-1.150005310773849487e-02,-8.211414329707622528e-03,6.651347037404775620e-03,2.421305328607559204e-02,-1.454261597245931625e-02,1.540726982057094574e-02,-1.873178593814373016e-02,1.577441766858100891e-02,1.232289709150791168e-02,-6.426339503377676010e-03,9.339642710983753204e-03,-2.232015319168567657e-02,1.522706169635057449e-02,1.518166996538639069e-02,1.166552677750587463e-02,-8.468900341540575027e-04,1.727508381009101868e-02
2.035116702318191528e-01,2.110173106193542480e-01,-2.089889049530029297e-01,-1.885976344347000122e-01,2.094680815935134888e-01,2.049283832311630249e-01,-2.091966122388839722e-01,2.058360427618026733e-01,-1.846315115690231323e-01,1.988915950059890747e-01,2.156765908002853394e-01,-1.986140310764312744e-01,-2.092908471822738647e-01,-2.134600132703781128e-01,-1.968793570995330811e-01,2.096138745546340942e-01,-2.041333764791488647e-01,-2.056214064359664917e-01,-1.974824368953704834e-01,2.175694108009338379e-01,1.879535764455795288e-01,2.074003666639328003e-01,-1.788921654224395752e-01,2.128003686666488647e-01,2.047655135393142700e-01,2.115776091814041138e-01,-1.999581009149551392e-01,2.115356475114822388e-01,-1.996285766363143921e-01,-1.994869858026504517e-01,-2.127498835325241089e-01,-2.008253484964370728e-01,2.123613208532333374e-01,-1.889589428901672363e-01,2.133418172597885132e-01,-2.069873809814453125e-01,-2.044437378644943237e-01,1.978448629379272461e-01,-2.048282623291015625e-01,-2.004339098930358887e-01,-2.111204862594604492e-01,2.033787816762924194e-01,1.878629326820373535e-01,-1.945154815912246704e-01,2.079820930957794189e-01,-2.204509228467941284e-01,-2.066233456134796143e-01,-2.108385115861892700e-01,-1.929258704185485840e-01,-1.996950656175613403e-01,-1.852232962846755981e-01,2.118764221668243408e-01,1.921210885047912598e-01,-2.125026285648345947e-01,-1.941208839416503906e-01,2.055754214525222778e-01,2.005252540111541748e-01,1.986212134361267090e-01,-2.053921073675155640e-01,-2.007409483194351196e-01,2.068292051553726196e-01,2.060845345258712769e-01,-2.029046714305877686e-01,-2.090098261833190918e-01,-1.987848132848739624e-01,-1.915784478187561035e-01,-2.040743231773376465e-01,-2.086929678916931152e-01,-1.828767359256744385e-01,2.106478065252304077e-01,2.045308351516723633e-01,1.895580887794494629e-01,-2.041633129119873047e-01,2.043972015380859375e-01,-1.872447580099105835e-01,2.079087793827056885e-01,-2.046908289194107056e-01,-2.044377177953720093e-01,1.995317339897155762e-01,1.798607707023620605e-01,-1.836116313934326172e-01,-2.089050710201263428e-01,2.161158323287963867e-01,-2.054294347763061523e-01,-1.952955126762390137e-01,2.104890793561935425e-01,-2.047147750854492188e-01,2.125101685523986816e-01,2.026318609714508057e-01,1.842354089021682739e-01,2.112546414136886597e-01,1.886504590511322021e-01,-1.969474107027053833e-01,-1.996889859437942505e-01,-2.102796584367752075e-01,2.014304399490356445e-01,-2.125616073608398438e-01,1.980691105127334595e-01,2.035595476627349854e-01,2.112725377082824707e-01,2.045414000749588013e-01,2.198672741651535034e-01,-1.755713969469070435e-01,1.944231092929840088e-01,1.931948959827423096e-01,1.994756013154983521e-01,-2.170152664184570312e-01,2.056220471858978271e-01,-2.167477160692214966e-01,-2.149927467107772827e-01,2.027692049741744995e-01,-2.076867371797561646e-01,1.999674141407012939e-01,2.156721651554107666e-01,2.036339640617370605e-01,1.773803532123565674e-01,2.040260285139083862e-01,1.964350938796997070e-01,-1.976257860660552979e-01,-2.137866765260696411e-01,-2.089021652936935425e-01,-2.002360820770263672e-01,-2.187584042549133301e-01,2.091327160596847534e-01,2.020452320575714111e-01,2.094523012638092041e-01,-1.987164467573165894e-01,2.100202143192291260e-01,-2.135786712169647217e-01,2.037034332752227783e-01,-1.804577708244323730e-01,-1.958990842103958130e-01,-2.010834366083145142e-01,2.114361971616744995e-01,2.161831706762313843e-01,-2.084835618734359741e-01,2.092919349670410156e-01,1.969102472066879272e-01,-2.156862318515777588e-01,-1.994497328996658325e-01,-1.934378892183303833e-01,1.916982829570770264e-01,2.014533579349517822e-01,2.070830911397933960e-01,1.950161308050155640e-01,2.068178206682205200e-01,2.011158019304275513e-01,-1.981644779443740845e-01,-2.027972936630249023e-01,2.136989533901214600e-01,-2.109241336584091187e-01,2.117143422365188599e-01,-1.868754625320434570e-01,2.057322263717651367e-01,2.120781689882278442e-01,1.993408501148223877e-01,2.029817551374435425e-01,-2.087938487529754639e-01,-1.919859945774078369e-01,2.016367465257644653e-01,2.028216570615768433e-01,1.994587630033493042e-01,-2.023945748805999756e-01,2.176548838615417480e-01,-2.053413689136505127e-01,-1.993520259857177734e-01,2.116276919841766357e-01,2.064247727394104004e-01,-1.921752542257308960e-01,1.971778124570846558e-01,2.101256102323532104e-01,-2.007746696472167969e-01,-2.018537223339080811e-01,1.995290666818618774e-01,2.124433219432830811e-01,-2.144356369972229004e-01,1.704876571893692017e-01,-2.140390574932098389e-01,2.053917050361633301e-01,-2.006406038999557495e-01,2.047922462224960327e-01,1.923804879188537598e-01,1.842779368162155151e-01,-2.180883586406707764e-01,-1.982596218585968018e-01,2.071703076362609863e-01,1.877319067716598511e-01,-1.967443376779556274e-01,2.088282108306884766e-01,-2.029054909944534302e-01,2.094240039587020874e-01,2.072665095329284668e-01,-2.055034041404724121e-01,2.059164941310882568e-01,-1.733369082212448120e-01,1.962773650884628296e-01,2.122902870178222656e-01,2.013259679079055786e-01,-2.122672647237777710e-01,2.186785191297531128e-01
-4.313596338033676147e-02,-5.234412476420402527e-02,4.638441279530525208e-02,5.703448504209518433e-02,-5.884029716253280640e-02,-5.206268653273582458e-02,6.035519391298294067e-02,-5.702481046319007874e-02,4.530094191431999207e-02,-5.454057082533836365e-02,-4.969216138124465942e-02,4.640947282314300537e-02,5.536175519227981567e-02,4.316452145576477051e-02,4.048105329275131226e-02,-4.568023979663848877e-02,4.852959141135215759e-02,4.598950967192649841e-02,5.954189598560333252e-02,-5.545955896377563477e-02,-4.106677323579788208e-02,-5.499912053346633911e-02,5.465397983789443970e-02,-4.681589454412460327e-02,-5.391023308038711548e-02,-5.445741117000579834e-02,4.451814293861389160e-02,-4.357932507991790771e-02,4.239494726061820984e-02,5.719081312417984009e-02,5.391073599457740784e-02,4.671301692724227905e-02,-5.128983408212661743e-02,5.204189941287040710e-02,-5.701025202870368958e-02,4.165902733802795410e-02,5.929319187998771667e-02,-3.736774623394012451e-02,4.286088421940803528e-02,5.278886854648590088e-02,6.078858673572540283e-02,-5.504171177744865417e-02,-5.044855549931526184e-02,5.456459522247314453e-02,-5.693562701344490051e-02,5.369620770215988159e-02,5.500491335988044739e-02,4.895553365349769592e-02,3.964152932167053223e-02,5.775006860494613647e-02,4.197331145405769348e-02,-4.674759134650230408e-02,-5.427310243248939514e-02,4.630491510033607483e-02,4.602659866213798523e-02,-6.097572296857833862e-02,-4.646166041493415833e-02,-4.110919311642646790e-02,5.282961577177047729e-02,4.959032312035560608e-02,-4.801487177610397339e-02,-5.710285529494285583e-02,6.083953008055686951e-02,5.870288237929344177e-02,5.425917357206344604e-02,4.107298702001571655e-02,4.274773225188255310e-02,5.047916620969772339e-02,5.066573992371559143e-02,-4.645730555057525635e-02,-6.112521514296531677e-02,-5.643178150057792664e-02,5.242458358407020569e-02,-5.991014093160629272e-02,5.580322444438934326e-02,-5.473687127232551575e-02,5.356540530920028687e-02,4.833691567182540894e-02,-4.605666548013687134e-02,-5.188731476664543152e-02,5.649200454354286194e-02,5.078091099858283997e-02,-5.071909353137016296e-02,5.693661421537399292e-02,5.429422482848167419e-02,-6.194856762886047363e-02,4.808917269110679626e-02,-6.052006781101226807e-02,-5.310704186558723450e-02,-4.628047347068786621e-02,-5.702602490782737732e-02,-5.235569551587104797e-02,5.305595695972442627e-02,3.969782218337059021e-02,6.184444576501846313e-02,-5.752529576420783997e-02,5.730627477169036865e-02,-4.503502324223518372e-02,-5.863466486334800720e-02,-4.677651822566986084e-02,-4.684716835618019104e-02,-5.796552449464797974e-02,4.806537553668022156e-02,-4.652111977338790894e-02,-5.646231770515441895e-02,-4.146725311875343323e-02,5.774782970547676086e-02,-4.617437720298767090e-02,5.748725309967994690e-02,5.546363443136215210e-02,-4.687485843896865845e-02,4.246755689382553101e-02,-5.900849401950836182e-02,-5.665225535631179810e-02,-6.089278683066368103e-02,-4.088053479790687561e-02,-5.270467326045036316e-02,-5.139944329857826233e-02,4.683930799365043640e-02,5.118532851338386536e-02,5.892000719904899597e-02,4.044491052627563477e-02,6.391244381666183472e-02,-5.471129715442657471e-02,-5.002323165535926819e-02,-4.718684777617454529e-02,5.300149321556091309e-02,-4.578099399805068970e-02,5.437217652797698975e-02,-4.969175532460212708e-02,5.239805579185485840e-02,4.661132395267486572e-02,4.308041557669639587e-02,-4.153773561120033264e-02,-5.615780502557754517e-02,4.745655879378318787e-02,-5.854262039065361023e-02,-5.045634880661964417e-02,5.039361119270324707e-02,5.396907031536102295e-02,4.468627274036407471e-02,-5.586597695946693420e-02,-4.722340404987335205e-02,-5.912456288933753967e-02,-4.773342981934547424e-02,-4.251186922192573547e-02,-4.304737225174903870e-02,4.832368716597557068e-02,4.709713533520698547e-02,-5.425233021378517151e-02,4.311604052782058716e-02,-3.932826220989227295e-02,4.385244101285934448e-02,-5.602886155247688293e-02,-4.286409169435501099e-02,-4.721945896744728088e-02,-5.302400514483451843e-02,5.593094974756240845e-02,4.967984557151794434e-02,-4.461251199245452881e-02,-4.722660407423973083e-02,-3.820583224296569824e-02,5.090759694576263428e-02,-4.393570125102996826e-02,4.573753848671913147e-02,5.069978535175323486e-02,-6.327339261770248413e-02,-4.232329130172729492e-02,5.797133594751358032e-02,-4.380413517355918884e-02,-5.083596333861351013e-02,5.376872420310974121e-02,5.321712791919708252e-02,-5.955244228243827820e-02,-5.327504128217697144e-02,5.453928932547569275e-02,-5.477682128548622131e-02,6.177479773759841919e-02,-5.193413421511650085e-02,5.758283659815788269e-02,-4.487961530685424805e-02,-5.100686103105545044e-02,-5.241476371884346008e-02,5.808166787028312683e-02,5.305742472410202026e-02,-4.475414380431175232e-02,-3.990168869495391846e-02,5.564406141638755798e-02,-4.251427203416824341e-02,5.762791261076927185e-02,-4.294187203049659729e-02,-4.984567314386367798e-02,6.125545129179954529e-02,-5.427232384681701660e-02,4.143249988555908203e-02,-5.559907853603363037e-02,-5.827635526657104492e-02,-3.961417824029922485e-02,4.622972011566162109e-02,-4.692120105028152466e-02
-4.782214388251304626e-02,-6.050054728984832764e-02,4.763730987906455994e-02,5.022979527711868286e-02,-4.891236126422882080e-02,-5.595773458480834961e-02,5.349623411893844604e-02,-4.913188889622688293e-02,4.138085991144180298e-02,-4.875656962394714355e-02,-5.896586179733276367e-02,5.889269709587097168e-02,4.707900807261466980e-02,5.564564466476440430e-02,5.101400986313819885e-02,-4.773667827248573303e-02,5.892059579491615295e-02,6.092751771211624146e-02,6.020954996347427368e-02,-5.441357195377349854e-02,-5.348762869834899902e-02,-5.153157934546470642e-02,5.852075293660163879e-02,-4.466076940298080444e-02,-4.781465232372283936e-02,-5.883705615997314453e-02,5.089399591088294983e-02,-5.483172088861465454e-02,5.112151801586151123e-02,5.595529079437255859e-02,5.672899261116981506e-02,4.887215420603752136e-02,-5.838244035840034485e-02,4.881909862160682678e-02,-5.167394131422042847e-02,5.877466127276420593e-02,4.748337715864181519e-02,-4.949399456381797791e-02,4.721400886774063110e-02,5.920648574829101562e-02,5.875483527779579163e-02,-4.983568564057350159e-02,-4.663475975394248962e-02,5.770220980048179626e-02,-5.566435307264328003e-02,6.633806973695755005e-02,5.597868934273719788e-02,5.375568941235542297e-02,5.720751360058784485e-02,5.364897474646568298e-02,4.267998784780502319e-02,-6.360524147748947144e-02,-5.286110192537307739e-02,5.151966586709022522e-02,5.219598859548568726e-02,-4.878919571638107300e-02,-5.164226144552230835e-02,-6.158023700118064880e-02,4.939979314804077148e-02,6.353758275508880615e-02,-6.118428334593772888e-02,-5.167838186025619507e-02,6.187740713357925415e-02,5.143700167536735535e-02,5.294973403215408325e-02,5.290674790740013123e-02,5.889734998345375061e-02,6.605961918830871582e-02,5.895987525582313538e-02,-5.233851447701454163e-02,-6.239527091383934021e-02,-5.399737134575843811e-02,5.860326066613197327e-02,-4.619415849447250366e-02,6.066695228219032288e-02,-6.164197996258735657e-02,5.815741047263145447e-02,5.416651815176010132e-02,-4.437342658638954163e-02,-5.523479357361793518e-02,4.846022278070449829e-02,5.666514113545417786e-02,-6.385662406682968140e-02,4.731202870607376099e-02,5.272782221436500549e-02,-5.328201502561569214e-02,5.384954065084457397e-02,-5.792295187711715698e-02,-5.344066023826599121e-02,-5.543842539191246033e-02,-4.808654636144638062e-02,-5.512112006545066833e-02,5.332833528518676758e-02,4.584496468305587769e-02,6.158765405416488647e-02,-5.035572126507759094e-02,5.044288188219070435e-02,-6.180548295378684998e-02,-4.953638836741447449e-02,-6.481966376304626465e-02,-5.018927901983261108e-02,-6.479950249195098877e-02,5.686869844794273376e-02,-6.084759160876274109e-02,-4.872233420610427856e-02,-5.844338983297348022e-02,5.099381133913993835e-02,-6.373094767332077026e-02,5.533286184072494507e-02,5.503750964999198914e-02,-5.640689656138420105e-02,5.726135149598121643e-02,-6.301890313625335693e-02,-6.056825444102287292e-02,-5.889843776822090149e-02,-5.105614662170410156e-02,-5.613393709063529968e-02,-4.826031997799873352e-02,4.647142812609672546e-02,5.228063091635704041e-02,5.325677990913391113e-02,6.170973926782608032e-02,6.222149729728698730e-02,-5.491105839610099792e-02,-4.715310409665107727e-02,-5.680874735116958618e-02,5.176689848303794861e-02,-5.144242569804191589e-02,6.127699837088584900e-02,-5.614116042852401733e-02,5.250583589076995850e-02,5.073625966906547546e-02,6.476601958274841309e-02,-6.252981722354888916e-02,-5.742306262254714966e-02,4.470910876989364624e-02,-5.237706378102302551e-02,-5.343617498874664307e-02,5.908581241965293884e-02,5.718749016523361206e-02,5.502207204699516296e-02,-6.121748313307762146e-02,-4.487232863903045654e-02,-4.898670688271522522e-02,-4.809689521789550781e-02,-5.807691439986228943e-02,-5.199192836880683899e-02,4.670857638120651245e-02,6.295266002416610718e-02,-6.062964722514152527e-02,5.433005094528198242e-02,-5.308837816119194031e-02,5.762623250484466553e-02,-5.846103653311729431e-02,-5.000421032309532166e-02,-5.237531661987304688e-02,-5.718533322215080261e-02,4.763812571763992310e-02,4.633882269263267517e-02,-4.688616469502449036e-02,-5.711432546377182007e-02,-5.494258552789688110e-02,5.611508339643478394e-02,-6.552027165889739990e-02,4.868999868631362915e-02,4.643016681075096130e-02,-5.232924968004226685e-02,-5.583774670958518982e-02,5.764500424265861511e-02,-4.758533462882041931e-02,-4.631625115871429443e-02,4.447471722960472107e-02,5.534045025706291199e-02,-4.636095836758613586e-02,-4.941990971565246582e-02,5.573619157075881958e-02,-4.629741609096527100e-02,6.324274092912673950e-02,-4.821074008941650391e-02,4.465597495436668396e-02,-5.127571895718574524e-02,-4.425273835659027100e-02,-4.413994029164314270e-02,6.161253526806831360e-02,5.940368771553039551e-02,-4.866047203540802002e-02,-5.464614182710647583e-02,6.197381392121315002e-02,-4.750979319214820862e-02,4.849380627274513245e-02,-5.877916514873504639e-02,-5.121924355626106262e-02,4.783818870782852173e-02,-6.000452861189842224e-02,4.452818632125854492e-02,-5.280570685863494873e-02,-5.559067800641059875e-02,-5.080442130565643311e-02,5.673735588788986206e-02,-5.726493895053863525e-02
-4.580748453736305237e-02,-4.706152155995368958e-02,4.999202862381935120e-02,2.736773714423179626e-02,-3.940256312489509583e-02,-4.078554734587669373e-02,3.988773003220558167e-02,-3.279019892215728760e-02,3.417230024933815002e-02,-4.484368488192558289e-02,-5.299523845314979553e-02,4.132670164108276367e-02,4.078765213489532471e-02,3.478938341140747070e-02,4.748845100402832031e-02,-5.119195207953453064e-02,3.517311811447143555e-02,3.420121595263481140e-02,3.951617702841758728e-02,-5.220134183764457703e-02,-2.470053918659687042e-02,-3.982081264257431030e-02,3.052297048270702362e-02,-4.057202860713005066e-02,-4.400763288140296936e-02,-4.135860502719879150e-02,4.750250652432441711e-02,-4.268882051110267639e-02,3.470443189144134521e-02,3.787442296743392944e-02,4.123382270336151123e-02,4.751937463879585266e-02,-3.901490569114685059e-02,3.460471704602241516e-02,-4.470664262771606445e-02,4.395572096109390259e-02,4.926390573382377625e-02,-3.133671358227729797e-02,3.675702214241027832e-02,4.093524813652038574e-02,4.137754440307617188e-02,-3.474665805697441101e-02,-4.532625153660774231e-02,4.434166476130485535e-02,-3.269625827670097351e-02,4.333474114537239075e-02,3.564603999257087708e-02,4.577344283461570740e-02,4.675405472517013550e-02,3.382534906268119812e-02,2.085517905652523041e-02,-4.885424673557281494e-02,-4.768063500523567200e-02,4.698447510600090027e-02,4.369623586535453796e-02,-4.261920228600502014e-02,-3.883532807230949402e-02,-3.014565631747245789e-02,4.229082539677619934e-02,5.180405825376510620e-02,-4.139651730656623840e-02,-4.122796282172203064e-02,4.069347307085990906e-02,5.096013844013214111e-02,4.445235431194305420e-02,3.678999841213226318e-02,3.906963765621185303e-02,4.217669367790222168e-02,2.268401160836219788e-02,-4.998996108770370483e-02,-3.539093211293220520e-02,-2.699644677340984344e-02,3.346085175871849060e-02,-4.176905006170272827e-02,2.954429574310779572e-02,-4.850761964917182922e-02,3.915819525718688965e-02,4.765038192272186279e-02,-3.753484413027763367e-02,-3.813424333930015564e-02,3.284344077110290527e-02,4.214667901396751404e-02,-3.906801342964172363e-02,3.083972260355949402e-02,2.896366454660892487e-02,-4.350221902132034302e-02,4.049729183316230774e-02,-3.891239687800407410e-02,-3.208371251821517944e-02,-4.208330810070037842e-02,-3.688503801822662354e-02,-2.195901796221733093e-02,3.895056620240211487e-02,3.652942180633544922e-02,4.904712364077568054e-02,-4.315131530165672302e-02,5.262033641338348389e-02,-3.403179720044136047e-02,-4.164236038923263550e-02,-3.644135221838951111e-02,-3.777962177991867065e-02,-5.308283492922782898e-02,2.827728725969791412e-02,-3.056123293936252594e-02,-3.031006269156932831e-02,-4.425999894738197327e-02,5.147326365113258362e-02,-3.650642558932304382e-02,4.481070116162300110e-02,4.145241156220436096e-02,-4.345460608601570129e-02,4.926823079586029053e-02,-3.802828863263130188e-02,-4.368298128247261047e-02,-3.126698359847068787e-02,-2.197542972862720490e-02,-3.839794918894767761e-02,-3.702020645141601562e-02,2.941688336431980133e-02,4.492937028408050537e-02,4.839329421520233154e-02,3.755270689725875854e-02,4.377442970871925354e-02,-4.940580204129219055e-02,-4.579952731728553772e-02,-3.888586163520812988e-02,4.166135191917419434e-02,-3.566881269216537476e-02,4.465744644403457642e-02,-4.388279095292091370e-02,2.729936316609382629e-02,3.290638700127601624e-02,3.828374668955802917e-02,-4.197131469845771790e-02,-3.955771774053573608e-02,3.452343121170997620e-02,-4.400820285081863403e-02,-3.355655446648597717e-02,4.699695855379104614e-02,4.097031801939010620e-02,2.920842356979846954e-02,-2.775022946298122406e-02,-3.742363303899765015e-02,-4.044026881456375122e-02,-4.271350800991058350e-02,-3.788221627473831177e-02,-4.851455613970756531e-02,3.223602101206779480e-02,3.659165650606155396e-02,-4.604709520936012268e-02,3.673821315169334412e-02,-4.389903694391250610e-02,3.957789018750190735e-02,-4.234824329614639282e-02,-3.991086408495903015e-02,-3.621074184775352478e-02,-4.978656396269798279e-02,4.315184429287910461e-02,4.635622724890708923e-02,-4.518615454435348511e-02,-4.949942231178283691e-02,-4.487678036093711853e-02,3.753988817334175110e-02,-3.761133924126625061e-02,5.006505548954010010e-02,3.840468451380729675e-02,-3.677761182188987732e-02,-4.400065913796424866e-02,4.238699376583099365e-02,-3.569802641868591309e-02,-3.766010329127311707e-02,4.242401570081710815e-02,3.477312996983528137e-02,-4.334526509046554565e-02,-5.427785217761993408e-02,4.444951191544532776e-02,-3.261707350611686707e-02,4.639808833599090576e-02,-3.532640263438224792e-02,5.026890709996223450e-02,-4.281120002269744873e-02,-3.589501976966857910e-02,-2.880190871655941010e-02,4.899078980088233948e-02,3.695831075310707092e-02,-4.783675074577331543e-02,-3.193402662873268127e-02,3.176431357860565186e-02,-3.893214091658592224e-02,3.644676133990287781e-02,-4.460024833679199219e-02,-4.955590888857841492e-02,4.493726789951324463e-02,-4.451118409633636475e-02,2.620228752493858337e-02,-4.204834625124931335e-02,-3.487502038478851318e-02,-4.760274663567543030e-02,4.354844987392425537e-02,-3.603004664182662964e-02
2.441401034593582153e-02,8.074336685240268707e-03,-2.148852869868278503e-02,-2.823076210916042328e-02,2.160867676138877869e-02,1.927406527101993561e-02,-1.808483898639678955e-02,8.346728049218654633e-03,-1.619880273938179016e-02,1.401975378394126892e-02,9.304108098149299622e-03,-1.242243405431509018e-02,-1.450353860855102539e-02,-2.613643370568752289e-02,-1.077219564467668533e-02,9.676634334027767181e-03,-1.191999111324548721e-02,-1.665025576949119568e-02,-1.933014765381813049e-02,1.916830614209175110e-02,3.523685038089752197e-02,6.838654633611440659e-03,-2.725963108241558075e-02,1.465799752622842789e-02,2.134659886360168457e-02,1.831843331456184387e-02,-9.733392857015132904e-03,1.893752440810203552e-02,-2.237038873136043549e-02,-1.135054416954517365e-02,-8.666461333632469177e-03,-2.240419201552867889e-02,1.942959427833557129e-02,-2.781065367162227631e-02,1.766691543161869049e-02,-8.834030479192733765e-03,-1.294043194502592087e-02,2.953000925481319427e-02,-2.461661025881767273e-02,-7.947041653096675873e-03,-1.312833093106746674e-02,1.421907544136047363e-02,2.454734593629837036e-02,-2.530867606401443481e-02,2.118394337594509125e-02,-1.783809624612331390e-02,-2.455618232488632202e-02,-2.582504600286483765e-02,-1.064038276672363281e-02,-1.350387092679738998e-02,-3.296527639031410217e-02,1.231894176453351974e-02,2.316916547715663910e-02,-1.944683864712715149e-02,-1.840859092772006989e-02,2.382530085742473602e-02,2.483764477074146271e-02,1.221675518900156021e-02,-1.135081611573696136e-02,-1.550545822829008102e-02,1.878885738551616669e-02,2.388970926403999329e-02,-1.680388115346431732e-02,-9.611045941710472107e-03,-2.743222936987876892e-02,-2.116864547133445740e-02,-1.297723874449729919e-02,-2.132748439908027649e-02,-3.597283735871315002e-02,2.128642238676548004e-02,9.272768162190914154e-03,2.310487627983093262e-02,-7.293666247278451920e-03,8.984064683318138123e-03,-2.884976193308830261e-02,7.604508660733699799e-03,-1.216226629912853241e-02,-2.487405203282833099e-02,9.112632833421230316e-03,3.178846836090087891e-02,-1.686203852295875549e-02,-1.040715351700782776e-02,1.853700913488864899e-02,-1.306825131177902222e-02,-1.209571864455938339e-02,1.258733868598937988e-02,-1.413198560476303101e-02,2.163976430892944336e-02,1.293020509183406830e-02,3.386330604553222656e-02,2.198095060884952545e-02,3.465403988957405090e-02,-1.328219659626483917e-02,-1.534186210483312607e-02,-9.277733042836189270e-03,2.072747237980365753e-02,-1.900091767311096191e-02,2.333409525454044342e-02,1.445596106350421906e-02,8.368220180273056030e-03,9.749712422490119934e-03,2.207247540354728699e-02,-2.844303101301193237e-02,1.191920693963766098e-02,1.055733673274517059e-02,2.142376638948917389e-02,-1.872415281832218170e-02,2.176404744386672974e-02,-1.091179437935352325e-02,-5.699489731341600418e-03,1.486725080758333206e-02,-1.118722837418317795e-02,2.571463026106357574e-02,2.557174675166606903e-02,1.219609845429658890e-02,3.598579019308090210e-02,1.739894412457942963e-02,1.553718093782663345e-02,-1.325155980885028839e-02,-1.733852736651897430e-02,-9.467993862926959991e-03,-1.481061615049839020e-02,-2.004579640924930573e-02,1.137585751712322235e-02,2.640785649418830872e-02,1.904003694653511047e-02,-1.707258634269237518e-02,1.439793407917022705e-02,-1.954095624387264252e-02,1.686143875122070312e-02,-3.398643061518669128e-02,-2.126552537083625793e-02,-2.395260334014892578e-02,1.034291647374629974e-02,8.184817619621753693e-03,-1.388623379170894623e-02,1.639309525489807129e-02,2.408040128648281097e-02,-1.929308660328388214e-02,-8.988783694803714752e-03,-1.674935035407543182e-02,2.715843729674816132e-02,2.271456085145473480e-02,1.922874152660369873e-02,1.412108074873685837e-02,1.012101769447326660e-02,1.846000924706459045e-02,-1.759751327335834503e-02,-7.911085151135921478e-03,2.535312622785568237e-02,-1.311231125146150589e-02,1.350477244704961777e-02,-2.532850764691829681e-02,2.539760060608386993e-02,2.317043766379356384e-02,2.677966281771659851e-02,8.388498798012733459e-03,-1.889143325388431549e-02,-3.033990971744060516e-02,1.744345203042030334e-02,1.866152696311473846e-02,2.357740327715873718e-02,-1.505289692431688309e-02,2.145503833889961243e-02,-1.499823015183210373e-02,-1.501164026558399200e-02,1.365041360259056091e-02,1.486984919756650925e-02,-2.147937007248401642e-02,2.383145876228809357e-02,2.618541941046714783e-02,-1.741565763950347900e-02,-8.875176310539245605e-03,2.290775068104267120e-02,2.426443994045257568e-02,-2.328632399439811707e-02,3.565424308180809021e-02,-2.139991894364356995e-02,2.332811243832111359e-02,-8.844133466482162476e-03,1.848924718797206879e-02,1.713976450264453888e-02,3.415691480040550232e-02,-2.072013169527053833e-02,-2.323975786566734314e-02,1.580036245286464691e-02,3.714164718985557556e-02,-1.619020663201808929e-02,2.610255032777786255e-02,-6.898635067045688629e-03,1.239218562841415405e-02,1.415787078440189362e-02,-2.290514484047889709e-02,1.298038568347692490e-02,-3.627165034413337708e-02,1.775758713483810425e-02,9.942026808857917786e-03,1.578145474195480347e-02,-2.138239331543445587e-02,2.023355290293693542e-02
4.916647821664810181e-02,3.241608291864395142e-02,-3.750816732645034790e-02,-2.871502377092838287e-02,3.627555444836616516e-02,4.636353999376296997e-02,-4.739761725068092346e-02,2.893177792429924011e-02,-2.231332845985889435e-02,4.387273266911506653e-02,4.034831374883651733e-02,-4.657118394970893860e-02,-3.882420063018798828e-02,-3.714656457304954529e-02,-3.446279093623161316e-02,4.531241580843925476e-02,-4.100044444203376770e-02,-4.947780817747116089e-02,-4.198439791798591614e-02,4.773981869220733643e-02,3.473570570349693298e-02,3.605364263057708740e-02,-2.169425040483474731e-02,4.630687087774276733e-02,3.085564263164997101e-02,3.356608748435974121e-02,-4.383889585733413696e-02,5.147882550954818726e-02,-3.217976167798042297e-02,-4.459317028522491455e-02,-5.260265246033668518e-02,-5.170011147856712341e-02,3.583444282412528992e-02,-3.140349686145782471e-02,4.309195280075073242e-02,-5.252406001091003418e-02,-4.600878432393074036e-02,4.629355296492576599e-02,-4.362430796027183533e-02,-3.737965598702430725e-02,-5.308266729116439819e-02,3.992193192243576050e-02,4.695353284478187561e-02,-3.389456123113632202e-02,4.336920008063316345e-02,-5.196695402264595032e-02,-3.728584200143814087e-02,-4.155264049768447876e-02,-4.256420210003852844e-02,-4.035901278257369995e-02,-3.684414178133010864e-02,3.799425438046455383e-02,2.621193602681159973e-02,-4.216067120432853699e-02,-3.374651074409484863e-02,4.541913792490959167e-02,4.353136941790580750e-02,3.255088254809379578e-02,-4.183869063854217529e-02,-3.840246796607971191e-02,4.749987274408340454e-02,4.588538408279418945e-02,-4.694321379065513611e-02,-4.495835676789283752e-02,-3.716585412621498108e-02,-3.867692127823829651e-02,-3.372772783041000366e-02,-4.410666227340698242e-02,-3.782122954726219177e-02,4.603558033704757690e-02,4.100111499428749084e-02,3.357109054923057556e-02,-4.014950990676879883e-02,4.346606507897377014e-02,-3.999190032482147217e-02,3.751751407980918884e-02,-5.087944120168685913e-02,-5.166359990835189819e-02,3.736009448766708374e-02,2.590106986463069916e-02,-3.275779634714126587e-02,-5.079986155033111572e-02,5.134820565581321716e-02,-4.748472943902015686e-02,-3.471541032195091248e-02,3.402198851108551025e-02,-4.419717937707901001e-02,3.385316580533981323e-02,3.685627877712249756e-02,3.710720315575599670e-02,5.089084059000015259e-02,3.448147699236869812e-02,-4.158228635787963867e-02,-3.752897679805755615e-02,-4.977612197399139404e-02,3.729533776640892029e-02,-5.267262086272239685e-02,4.594923555850982666e-02,3.850152343511581421e-02,4.692316427826881409e-02,5.119902268052101135e-02,3.978823497891426086e-02,-2.013681828975677490e-02,3.212464600801467896e-02,3.579113259911537170e-02,4.519166797399520874e-02,-4.508453607559204102e-02,3.752816468477249146e-02,-3.606523200869560242e-02,-4.825875163078308105e-02,4.952489957213401794e-02,-3.218385204672813416e-02,4.514053091406822205e-02,5.007378756999969482e-02,4.533735290169715881e-02,2.795748040080070496e-02,4.719503223896026611e-02,4.337640851736068726e-02,-2.883898094296455383e-02,-4.039109498262405396e-02,-5.189938098192214966e-02,-4.372266680002212524e-02,-3.685399889945983887e-02,4.749296978116035461e-02,4.179232195019721985e-02,4.012632742524147034e-02,-3.709644451737403870e-02,4.515630006790161133e-02,-3.995937108993530273e-02,3.713721036911010742e-02,-3.432282805442810059e-02,-4.420182853937149048e-02,-3.911332041025161743e-02,4.193940386176109314e-02,5.380591005086898804e-02,-5.360515788197517395e-02,3.501079976558685303e-02,3.580894693732261658e-02,-4.873919114470481873e-02,-3.499032929539680481e-02,-2.818485908210277557e-02,4.575946927070617676e-02,4.125589504837989807e-02,3.317095711827278137e-02,3.899102658033370972e-02,3.402323648333549500e-02,4.979099333286285400e-02,-2.790674753487110138e-02,-3.464949131011962891e-02,4.828568920493125916e-02,-3.228598088026046753e-02,3.407739847898483276e-02,-2.780217304825782776e-02,4.516028240323066711e-02,5.205722525715827942e-02,3.767819702625274658e-02,4.559788480401039124e-02,-4.804517701268196106e-02,-3.583741188049316406e-02,3.763377293944358826e-02,3.282197937369346619e-02,4.415827989578247070e-02,-3.535231947898864746e-02,3.535417094826698303e-02,-5.445511266589164734e-02,-3.986733406782150269e-02,4.563807696104049683e-02,3.845237195491790771e-02,-4.496326297521591187e-02,3.489463031291961670e-02,3.762857988476753235e-02,-4.828741401433944702e-02,-3.295903652906417847e-02,3.403763100504875183e-02,3.781865537166595459e-02,-3.567107766866683960e-02,1.831847056746482849e-02,-4.245876148343086243e-02,4.019762575626373291e-02,-3.712040930986404419e-02,4.840578883886337280e-02,3.805555403232574463e-02,2.204586565494537354e-02,-5.198026448488235474e-02,-3.046556189656257629e-02,3.343667089939117432e-02,2.912006340920925140e-02,-3.058847412467002869e-02,4.475235566496849060e-02,-3.801086544990539551e-02,4.836142435669898987e-02,5.223699286580085754e-02,-3.440971672534942627e-02,3.549620136618614197e-02,-2.178720384836196899e-02,3.893892467021942139e-02,3.461477160453796387e-02,3.397015109658241272e-02,-5.225778743624687195e-02,4.494313150644302368e-02
8.602660894393920898e-02,9.352435916662216187e-02,-9.036365151405334473e-02,-8.478890359401702881e-02,8.903568238019943237e-02,9.802241623401641846e-02,-9.287017583847045898e-02,8.482713997364044189e-02,-8.945276588201522827e-02,9.890600293874740601e-02,9.050678461790084839e-02,-9.261979162693023682e-02,-8.335970342159271240e-02,-9.127511084079742432e-02,-7.827943563461303711e-02,1.004162505269050598e-01,-7.708498835563659668e-02,-9.375554323196411133e-02,-7.593220472335815430e-02,8.470571041107177734e-02,7.230740040540695190e-02,8.582290261983871460e-02,-7.029250264167785645e-02,7.738852500915527344e-02,8.057825267314910889e-02,7.995434850454330444e-02,-9.999739378690719604e-02,8.475051075220108032e-02,-7.983565330505371094e-02,-8.407509326934814453e-02,-8.886181563138961792e-02,-8.987645059823989868e-02,9.853156656026840210e-02,-1.002485230565071106e-01,9.252151101827621460e-02,-8.416894078254699707e-02,-8.774073421955108643e-02,7.563769072294235229e-02,-8.234281837940216064e-02,-9.572540968656539917e-02,-9.065524488687515259e-02,8.007331192493438721e-02,7.844587415456771851e-02,-8.502525836229324341e-02,9.358511865139007568e-02,-8.974960446357727051e-02,-8.487423509359359741e-02,-7.465732097625732422e-02,-8.645754307508468628e-02,-9.113334864377975464e-02,-8.077448606491088867e-02,9.299866855144500732e-02,9.331970661878585815e-02,-8.280588686466217041e-02,-8.360140025615692139e-02,8.509054034948348999e-02,9.862711280584335327e-02,7.646167278289794922e-02,-8.353474736213684082e-02,-8.670058846473693848e-02,8.864394575357437134e-02,9.191406518220901489e-02,-8.418057113885879517e-02,-7.962559163570404053e-02,-8.793999254703521729e-02,-8.828307688236236572e-02,-8.803176879882812500e-02,-8.999626338481903076e-02,-7.307784259319305420e-02,8.072223514318466187e-02,9.990727901458740234e-02,8.312855660915374756e-02,-8.238365501165390015e-02,9.335450828075408936e-02,-8.014682680368423462e-02,9.182653576135635376e-02,-8.680162578821182251e-02,-8.326081931591033936e-02,7.679496705532073975e-02,7.761636376380920410e-02,-8.975417166948318481e-02,-8.371182531118392944e-02,8.766295760869979858e-02,-7.708482444286346436e-02,-8.264926820993423462e-02,9.861610829830169678e-02,-8.837499469518661499e-02,9.216962754726409912e-02,9.226168692111968994e-02,7.489468902349472046e-02,8.924517035484313965e-02,7.728995382785797119e-02,-9.490200132131576538e-02,-8.548364788293838501e-02,-8.595956116914749146e-02,7.961546629667282104e-02,-8.179262280464172363e-02,9.150005877017974854e-02,8.846569061279296875e-02,8.681778609752655029e-02,9.441235661506652832e-02,9.374100714921951294e-02,-8.109430223703384399e-02,8.032169938087463379e-02,9.419582039117813110e-02,9.274168312549591064e-02,-8.483151346445083618e-02,8.304915577173233032e-02,-9.353761374950408936e-02,-9.603744745254516602e-02,8.263233304023742676e-02,-9.880707412958145142e-02,8.621158450841903687e-02,8.363770693540573120e-02,9.194572269916534424e-02,9.472943097352981567e-02,8.421399444341659546e-02,9.033610671758651733e-02,-8.813936263322830200e-02,-8.986140042543411255e-02,-8.498562127351760864e-02,-8.130025863647460938e-02,-8.837711066007614136e-02,8.715275675058364868e-02,9.244652837514877319e-02,9.430543333292007446e-02,-9.192208945751190186e-02,8.283313363790512085e-02,-9.247741848230361938e-02,8.631911128759384155e-02,-9.372433274984359741e-02,-7.905834168195724487e-02,-7.877327501773834229e-02,8.598218858242034912e-02,8.919470012187957764e-02,-9.559672325849533081e-02,7.877008616924285889e-02,9.430972486734390259e-02,-8.507661521434783936e-02,-8.488438278436660767e-02,-9.583117067813873291e-02,9.004756063222885132e-02,8.297345787286758423e-02,8.872636407613754272e-02,9.099625051021575928e-02,9.797580540180206299e-02,8.802143484354019165e-02,-8.400807529687881470e-02,-8.862850069999694824e-02,8.764429390430450439e-02,-8.075220137834548950e-02,9.460489451885223389e-02,-9.188295900821685791e-02,9.230051934719085693e-02,8.878104388713836670e-02,9.516257792711257935e-02,8.949990570545196533e-02,-9.065605700016021729e-02,-8.775874972343444824e-02,9.253652393817901611e-02,9.377494454383850098e-02,8.160674571990966797e-02,-7.955949008464813232e-02,9.841224551200866699e-02,-8.704511076211929321e-02,-8.469405770301818848e-02,8.573746681213378906e-02,8.348073810338973999e-02,-8.372031897306442261e-02,9.595663845539093018e-02,8.811464160680770874e-02,-8.805669844150543213e-02,-9.385281056165695190e-02,8.425723016262054443e-02,9.133408963680267334e-02,-8.814148604869842529e-02,6.303671747446060181e-02,-8.352066576480865479e-02,8.544433861970901489e-02,-8.814279735088348389e-02,8.305449038743972778e-02,8.900064975023269653e-02,8.559501171112060547e-02,-9.229539334774017334e-02,-8.330246061086654663e-02,9.567067027091979980e-02,7.468600571155548096e-02,-9.356743097305297852e-02,7.804466784000396729e-02,-7.885075360536575317e-02,9.774679690599441528e-02,9.377636015415191650e-02,-9.580778330564498901e-02,9.078215807676315308e-02,-8.233584463596343994e-02,8.811795711517333984e-02,9.291546791791915894e-02,9.415715932846069336e-02,-9.871050715446472168e-02,8.695379644632339478e-02
7.299930602312088013e-02,1.093333810567855835e-01,-1.037465184926986694e-01,-5.946767330169677734e-02,7.152798026800155640e-02,1.052250489592552185e-01,-1.141610816121101379e-01,1.155141741037368774e-01,-8.005882799625396729e-02,1.287718713283538818e-01,8.384961634874343872e-02,-8.118102699518203735e-02,-9.980056434869766235e-02,-7.010611891746520996e-02,-9.469911456108093262e-02,1.229371726512908936e-01,-8.551990985870361328e-02,-1.040580123662948608e-01,-7.470376789569854736e-02,6.450153142213821411e-02,5.976352468132972717e-02,9.910919517278671265e-02,-5.395245552062988281e-02,7.980824261903762817e-02,1.075303629040718079e-01,8.848221600055694580e-02,-1.231304034590721130e-01,9.522864967584609985e-02,-9.513978660106658936e-02,-8.282383531332015991e-02,-1.386295408010482788e-01,-8.913131803274154663e-02,1.038852706551551819e-01,-1.601042896509170532e-01,9.732749313116073608e-02,-9.116236865520477295e-02,-9.390494972467422485e-02,5.982024595141410828e-02,-5.766181647777557373e-02,-1.090591996908187866e-01,-9.615420550107955933e-02,8.990980684757232666e-02,7.189836353063583374e-02,-1.226386502385139465e-01,9.832269698381423950e-02,-7.941745221614837646e-02,-8.956835418939590454e-02,-6.328997761011123657e-02,-1.259497702121734619e-01,-6.656450778245925903e-02,-6.230974942445755005e-02,6.656108796596527100e-02,1.286666393280029297e-01,-1.248675957322120667e-01,-8.623102307319641113e-02,1.140332072973251343e-01,1.350698620080947876e-01,8.186092972755432129e-02,-6.708665192127227783e-02,-9.944143891334533691e-02,8.769927918910980225e-02,8.073469251394271851e-02,-1.037082374095916748e-01,-7.399539649486541748e-02,-8.463061600923538208e-02,-8.982694149017333984e-02,-1.096145287156105042e-01,-1.088349819183349609e-01,-5.296925827860832214e-02,7.622312009334564209e-02,8.768207579851150513e-02,8.301055431365966797e-02,-1.164587214589118958e-01,1.013222485780715942e-01,-8.476360887289047241e-02,7.262118905782699585e-02,-9.615193307399749756e-02,-8.372193574905395508e-02,6.931890547275543213e-02,8.327345550060272217e-02,-8.606109023094177246e-02,-8.016102761030197144e-02,8.736350387334823608e-02,-7.386197894811630249e-02,-9.339449554681777954e-02,8.543040603399276733e-02,-8.939307928085327148e-02,1.027318239212036133e-01,7.762026786804199219e-02,6.431128084659576416e-02,1.046066209673881531e-01,6.754010915756225586e-02,-1.040116548538208008e-01,-6.528907269239425659e-02,-1.049355864524841309e-01,6.264328956604003906e-02,-1.104050278663635254e-01,1.007288247346878052e-01,8.400152623653411865e-02,8.830512315034866333e-02,1.008216738700866699e-01,1.219374611973762512e-01,-9.952110052108764648e-02,6.688546389341354370e-02,1.174886599183082581e-01,1.067310720682144165e-01,-7.381719350814819336e-02,1.119845435023307800e-01,-1.266789436340332031e-01,-9.079760313034057617e-02,1.015241295099258423e-01,-1.130225434899330139e-01,6.888676434755325317e-02,8.449988812208175659e-02,7.402322441339492798e-02,9.987588226795196533e-02,9.699378162622451782e-02,1.330998390913009644e-01,-1.047693938016891479e-01,-9.585887938737869263e-02,-7.349625229835510254e-02,-7.765431702136993408e-02,-9.645164012908935547e-02,1.214290782809257507e-01,1.050965860486030579e-01,9.733712673187255859e-02,-6.770545244216918945e-02,9.555057436227798462e-02,-9.929037094116210938e-02,8.303739130496978760e-02,-1.102684214711189270e-01,-9.512461721897125244e-02,-8.267918229103088379e-02,8.553918451070785522e-02,9.240464121103286743e-02,-9.578958153724670410e-02,9.654685109853744507e-02,6.842669844627380371e-02,-1.109602078795433044e-01,-8.616086840629577637e-02,-9.677296876907348633e-02,5.868380889296531677e-02,1.047001928091049194e-01,1.003251373767852783e-01,8.563223481178283691e-02,9.511843323707580566e-02,8.445005118846893311e-02,-6.905217468738555908e-02,-7.511584460735321045e-02,9.246664494276046753e-02,-8.612932264804840088e-02,1.078480035066604614e-01,-6.976885348558425903e-02,7.815105468034744263e-02,1.327120214700698853e-01,9.410292655229568481e-02,7.295568287372589111e-02,-8.424443751573562622e-02,-8.365530520677566528e-02,7.521225512027740479e-02,7.889627665281295776e-02,8.466915041208267212e-02,-6.285762041807174683e-02,9.785318374633789062e-02,-6.949709355831146240e-02,-8.564998954534530640e-02,8.296715468168258667e-02,8.011053502559661865e-02,-7.883016020059585571e-02,9.188279509544372559e-02,8.544301241636276245e-02,-1.096957772970199585e-01,-7.393710315227508545e-02,8.136344701051712036e-02,9.719210863113403320e-02,-8.433794975280761719e-02,3.420940786600112915e-02,-8.663783967494964600e-02,9.105180948972702026e-02,-1.002545431256294250e-01,9.259662777185440063e-02,1.051845103502273560e-01,9.991508722305297852e-02,-1.069820374250411987e-01,-9.396983683109283447e-02,1.078984066843986511e-01,7.960907369852066040e-02,-8.698541671037673950e-02,7.628150284290313721e-02,-8.223941177129745483e-02,8.413266390562057495e-02,9.011802822351455688e-02,-8.664003759622573853e-02,8.748815953731536865e-02,-7.976078987121582031e-02,7.121737301349639893e-02,7.717303931713104248e-02,8.431611955165863037e-02,-9.429224580526351929e-02,1.343826800584793091e-01
4.997808858752250671e-02,5.824610590934753418e-02,-4.670036956667900085e-02,-4.203405231237411499e-02,5.649966001510620117e-02,6.061865389347076416e-02,-5.891231074929237366e-02,4.652000963687896729e-02,-5.008498951792716980e-02,4.723959043622016907e-02,5.250442028045654297e-02,-4.417352005839347839e-02,-5.025963857769966125e-02,-4.421722888946533203e-02,-4.302605614066123962e-02,5.169005692005157471e-02,-4.464139416813850403e-02,-6.028759479522705078e-02,-5.436952784657478333e-02,5.841893702745437622e-02,5.052222311496734619e-02,5.604805797338485718e-02,-3.578630834817886353e-02,4.076954722404479980e-02,4.519654810428619385e-02,4.880574718117713928e-02,-4.391850531101226807e-02,5.505889654159545898e-02,-4.517043009400367737e-02,-5.285342037677764893e-02,-5.417206138372421265e-02,-4.759841412305831909e-02,5.321865901350975037e-02,-6.078539043664932251e-02,4.538378864526748657e-02,-4.058592766523361206e-02,-4.134805127978324890e-02,4.002865776419639587e-02,-5.564205721020698547e-02,-5.393910035490989685e-02,-4.883098974823951721e-02,4.095698520541191101e-02,4.364916309714317322e-02,-5.014824494719505310e-02,4.823493584990501404e-02,-4.563523828983306885e-02,-6.157108396291732788e-02,-4.047758504748344421e-02,-4.862316325306892395e-02,-3.993470594286918640e-02,-5.079648271203041077e-02,4.201013222336769104e-02,5.481820181012153625e-02,-5.548221245408058167e-02,-5.597935616970062256e-02,5.953523144125938416e-02,6.110074743628501892e-02,4.068537056446075439e-02,-5.329445376992225647e-02,-4.295311495661735535e-02,4.940853267908096313e-02,4.338647425174713135e-02,-5.589893460273742676e-02,-5.707754939794540405e-02,-4.317295178771018982e-02,-4.496856778860092163e-02,-4.496468976140022278e-02,-4.791820049285888672e-02,-3.936020657420158386e-02,5.921535566449165344e-02,4.549961537122726440e-02,4.354316368699073792e-02,-4.288394749164581299e-02,4.569944739341735840e-02,-4.387009516358375549e-02,5.151027068495750427e-02,-5.445756763219833374e-02,-4.793813824653625488e-02,5.481577664613723755e-02,4.677592962980270386e-02,-4.876043647527694702e-02,-5.480573698878288269e-02,5.901370942592620850e-02,-4.455063492059707642e-02,-3.926022723317146301e-02,5.224626138806343079e-02,-5.204563960433006287e-02,4.939184337854385376e-02,5.090129747986793518e-02,5.354068428277969360e-02,4.930093139410018921e-02,4.942313209176063538e-02,-5.724952369928359985e-02,-3.919248282909393311e-02,-5.759472772479057312e-02,4.151891916990280151e-02,-5.815047398209571838e-02,5.915360152721405029e-02,5.583968386054039001e-02,4.804819077253341675e-02,5.368539318442344666e-02,5.085479840636253357e-02,-4.712099581956863403e-02,3.644742816686630249e-02,5.354651063680648804e-02,4.148786142468452454e-02,-5.580369010567665100e-02,5.870246142148971558e-02,-5.566830188035964966e-02,-4.313221201300621033e-02,4.569648951292037964e-02,-5.174100771546363831e-02,4.667428880929946899e-02,5.149838700890541077e-02,4.927612468600273132e-02,5.671971663832664490e-02,4.758482426404953003e-02,5.948142707347869873e-02,-5.726959556341171265e-02,-4.915869981050491333e-02,-4.835972189903259277e-02,-4.416500777006149292e-02,-5.700120329856872559e-02,4.842516779899597168e-02,4.492898285388946533e-02,4.857399314641952515e-02,-4.319975525140762329e-02,6.044048443436622620e-02,-4.567313566803932190e-02,4.753727838397026062e-02,-4.108273237943649292e-02,-4.958272352814674377e-02,-5.781788006424903870e-02,5.718962475657463074e-02,6.397887319326400757e-02,-4.945421218872070312e-02,5.692486092448234558e-02,5.055074393749237061e-02,-5.917488783597946167e-02,-5.709715560078620911e-02,-5.962960794568061829e-02,4.356514289975166321e-02,4.894274473190307617e-02,5.669802799820899963e-02,5.612280219793319702e-02,5.941929295659065247e-02,5.773035436868667603e-02,-4.367071762681007385e-02,-5.530549958348274231e-02,5.600479245185852051e-02,-4.800008982419967651e-02,4.794552177190780640e-02,-4.674758389592170715e-02,4.586625471711158752e-02,5.731184408068656921e-02,5.239213630557060242e-02,5.263154581189155579e-02,-5.148768052458763123e-02,-5.583162978291511536e-02,3.878685459494590759e-02,5.474935844540596008e-02,4.452871903777122498e-02,-5.009608715772628784e-02,5.875276401638984680e-02,-5.529413372278213501e-02,-5.359508469700813293e-02,4.326590895652770996e-02,4.545105993747711182e-02,-5.394360795617103577e-02,5.473895370960235596e-02,5.932471901178359985e-02,-5.214065313339233398e-02,-3.943118080496788025e-02,4.758433625102043152e-02,5.937643721699714661e-02,-4.800155758857727051e-02,3.995876759290695190e-02,-5.089068040251731873e-02,4.670350998640060425e-02,-4.864643886685371399e-02,4.762106016278266907e-02,5.405880510807037354e-02,4.054450988769531250e-02,-5.143654346466064453e-02,-4.108165577054023743e-02,5.016496032476425171e-02,4.963393509387969971e-02,-5.733596161007881165e-02,5.074879899621009827e-02,-4.525756090879440308e-02,5.928918346762657166e-02,4.415646195411682129e-02,-5.033395811915397644e-02,4.069139063358306885e-02,-4.591771215200424194e-02,5.723752453923225403e-02,4.206769168376922607e-02,4.492886736989021301e-02,-6.005243584513664246e-02,6.230796501040458679e-02
-2.626185677945613861e-02,-2.272106520831584930e-02,2.060669846832752228e-02,2.422261796891689301e-02,-1.235051639378070831e-02,-1.780284196138381958e-02,1.784293167293071747e-02,-1.506846770644187927e-02,2.852177992463111877e-02,-2.713341638445854187e-02,-9.320058859884738922e-03,2.527484111487865448e-02,9.888599626719951630e-03,2.135005965828895569e-02,1.776735670864582062e-02,-2.003232948482036591e-02,2.108758129179477692e-02,1.563691906630992889e-02,2.376380562782287598e-02,-2.643085084855556488e-02,-2.087653428316116333e-02,-2.056477405130863190e-02,2.316746860742568970e-02,-1.136631704866886139e-02,-1.435763109475374222e-02,-2.151709049940109253e-02,8.198931813240051270e-03,-1.225754991173744202e-02,1.012294366955757141e-02,1.139152515679597855e-02,1.683462411165237427e-02,1.462318282574415207e-02,-2.327162772417068481e-02,1.383351720869541168e-02,-2.117438428103923798e-02,7.874051108956336975e-03,1.123761385679244995e-02,-1.592371799051761627e-02,1.641274429857730865e-02,1.084263995289802551e-02,2.140481583774089813e-02,-9.208878502249717712e-03,-9.706220589578151703e-03,2.746980637311935425e-02,-1.603829115629196167e-02,2.341545186936855316e-02,2.689846418797969818e-02,1.727884262800216675e-02,9.053965099155902863e-03,1.383753865957260132e-02,2.719345316290855408e-02,-2.395525202155113220e-02,-1.269230712205171585e-02,1.186576765030622482e-02,6.024881266057491302e-03,-1.316078100353479385e-02,-2.423253841698169708e-02,-1.617761701345443726e-02,6.684726569801568985e-03,9.748205542564392090e-03,-1.031460613012313843e-02,-2.592310495674610138e-02,6.536092609167098999e-03,1.900941133499145508e-02,1.449866779148578644e-02,2.340920083224773407e-02,1.882259733974933624e-02,1.899906434118747711e-02,1.229134574532508850e-02,-1.735816709697246552e-02,-1.821939274668693542e-02,-1.698661968111991882e-02,1.731245592236518860e-02,-1.227737218141555786e-02,2.826563268899917603e-02,-8.019685745239257812e-03,1.557546108961105347e-02,1.231821626424789429e-02,-1.242140959948301315e-02,-1.337815262377262115e-02,2.666179090738296509e-02,8.082215674221515656e-03,-8.726627565920352936e-03,8.954294957220554352e-03,2.215985767543315887e-02,-2.099959366023540497e-02,2.269477210938930511e-02,-2.380341850221157074e-02,-2.005878277122974396e-02,-2.712997049093246460e-02,-1.956762745976448059e-02,-9.691156446933746338e-03,1.938553899526596069e-02,1.865978166460990906e-02,1.199330575764179230e-02,-1.670488342642784119e-02,2.269510179758071899e-02,-1.858026906847953796e-02,-1.789400540292263031e-02,-1.803293451666831970e-02,-2.589924819767475128e-02,-1.411398127675056458e-02,1.544004678726196289e-02,-2.264837175607681274e-02,-2.476418390870094299e-02,-1.060949265956878662e-02,1.913505420088768005e-02,-2.200089395046234131e-02,2.234515734016895294e-02,2.080276608467102051e-02,-1.914281211793422699e-02,1.389850210398435593e-02,-1.241552922874689102e-02,-2.371663972735404968e-02,-2.378774993121623993e-02,-2.850214391946792603e-02,-1.475043781101703644e-02,-1.691438443958759308e-02,1.092750579118728638e-02,1.490557659417390823e-02,2.471518889069557190e-02,2.624824829399585724e-02,1.317583490163087845e-02,-8.102082647383213043e-03,-2.052759937942028046e-02,-1.350967679172754288e-02,2.404203079640865326e-02,-1.782431080937385559e-02,2.068219520151615143e-02,-1.957795768976211548e-02,2.311756834387779236e-02,9.264186024665832520e-03,2.391755394637584686e-02,-1.444090716540813446e-02,-1.161985378712415695e-02,2.011324279010295868e-02,-1.286454591900110245e-02,-8.902617730200290680e-03,2.045990712940692902e-02,1.199935283511877060e-02,1.315593719482421875e-02,-1.796883344650268555e-02,-2.596318908035755157e-02,-8.444839157164096832e-03,-9.983315132558345795e-03,-1.612064801156520844e-02,-2.022262103855609894e-02,1.256062928587198257e-02,1.288652047514915466e-02,-1.331769116222858429e-02,9.208017960190773010e-03,-2.529762499034404755e-02,7.224007975310087204e-03,-1.320129260420799255e-02,-1.435731910169124603e-02,-8.589524775743484497e-03,-1.178637612611055374e-02,8.320126682519912720e-03,2.417421713471412659e-02,-1.541682984679937363e-02,-2.562541700899600983e-02,-1.507343258708715439e-02,8.288585580885410309e-03,-2.234341576695442200e-02,1.271528657525777817e-02,1.111046224832534790e-02,-2.314348332583904266e-02,-2.213828265666961670e-02,2.712520025670528412e-02,-9.833783842623233795e-03,-2.089946530759334564e-02,2.015761099755764008e-02,7.429296150803565979e-03,-7.237197365611791611e-03,-1.437653414905071259e-02,2.097357623279094696e-02,-3.152449801564216614e-02,2.238421887159347534e-02,-1.964399777352809906e-02,1.745947077870368958e-02,-2.362176775932312012e-02,-1.523197256028652191e-02,-2.343858778476715088e-02,2.008228749036788940e-02,2.197103202342987061e-02,-1.538303121924400330e-02,-1.427335012704133987e-02,2.175419963896274567e-02,-1.173530239611864090e-02,2.135694213211536407e-02,-2.458077482879161835e-02,-1.471190247684717178e-02,2.516561746597290039e-02,-1.994729787111282349e-02,2.699418924748897552e-02,-1.204417459666728973e-02,-2.547111175954341888e-02,-2.056231722235679626e-02,2.180146612226963043e-02,-1.240923162549734116e-02
-4.640596732497215271e-02,-6.062987074255943298e-02,5.820444598793983459e-02,5.194794014096260071e-02,-5.848665535449981689e-02,-5.375366657972335815e-02,5.116549134254455566e-02,-4.871993139386177063e-02,5.651544407010078430e-02,-6.078702583909034729e-02,-5.036417394876480103e-02,6.260097026824951172e-02,5.179625004529953003e-02,5.989850312471389771e-02,6.375102698802947998e-02,-5.221769958734512329e-02,5.194731429219245911e-02,6.338322907686233521e-02,4.773893579840660095e-02,-5.078657343983650208e-02,-4.898224398493766785e-02,-4.845021665096282959e-02,6.040689721703529358e-02,-5.049290135502815247e-02,-5.514800548553466797e-02,-5.392980575561523438e-02,5.082405731081962585e-02,-6.445277482271194458e-02,5.306873843073844910e-02,6.307797878980636597e-02,5.125317722558975220e-02,4.827163368463516235e-02,-6.628491729497909546e-02,4.823845624923706055e-02,-5.651111900806427002e-02,5.176427215337753296e-02,4.856693372130393982e-02,-5.457092449069023132e-02,5.943787097930908203e-02,5.334781110286712646e-02,5.748057365417480469e-02,-5.522183701395988464e-02,-5.751731619238853455e-02,4.962884262204170227e-02,-5.078008398413658142e-02,6.372699141502380371e-02,5.092665925621986389e-02,6.165396794676780701e-02,6.358619034290313721e-02,5.491723865270614624e-02,5.791357904672622681e-02,-5.305261909961700439e-02,-6.322893500328063965e-02,6.526264548301696777e-02,4.997610673308372498e-02,-6.478149443864822388e-02,-5.773109197616577148e-02,-4.679695889353752136e-02,6.577455252408981323e-02,6.208890303969383240e-02,-6.412945687770843506e-02,-4.667851328849792480e-02,5.646580830216407776e-02,6.120132654905319214e-02,4.972675442695617676e-02,6.501824408769607544e-02,5.566286668181419373e-02,5.354323238134384155e-02,5.360359326004981995e-02,-5.371806770563125610e-02,-6.585154682397842407e-02,-5.953954532742500305e-02,5.236270278692245483e-02,-5.494832992553710938e-02,6.344368308782577515e-02,-6.443373113870620728e-02,4.965767636895179749e-02,5.105100199580192566e-02,-5.678404867649078369e-02,-5.351312831044197083e-02,5.350853502750396729e-02,6.142809242010116577e-02,-6.338006258010864258e-02,5.539903044700622559e-02,6.477060914039611816e-02,-5.767328292131423950e-02,5.403783172369003296e-02,-6.185784190893173218e-02,-5.004665255546569824e-02,-5.278865620493888855e-02,-6.080720946192741394e-02,-4.652497172355651855e-02,6.307844817638397217e-02,5.080853402614593506e-02,4.781895875930786133e-02,-6.110814213752746582e-02,5.694242566823959351e-02,-6.442306935787200928e-02,-6.448029726743698120e-02,-5.386573076248168945e-02,-6.270594894886016846e-02,-5.467559769749641418e-02,4.574095085263252258e-02,-5.876519903540611267e-02,-4.961860179901123047e-02,-4.661701992154121399e-02,5.288006737828254700e-02,-5.797801539301872253e-02,6.125519052147865295e-02,6.684408336877822876e-02,-6.149542704224586487e-02,6.022467464208602905e-02,-6.707818806171417236e-02,-6.647861748933792114e-02,-6.266419589519500732e-02,-6.083508208394050598e-02,-4.678796604275703430e-02,-6.060221418738365173e-02,5.590591579675674438e-02,5.805949121713638306e-02,5.219642445445060730e-02,5.039457231760025024e-02,5.116641148924827576e-02,-6.444359570741653442e-02,-5.689489468932151794e-02,-4.947625845670700073e-02,5.204991623759269714e-02,-6.004269048571586609e-02,5.832805484533309937e-02,-5.241323262453079224e-02,4.657984897494316101e-02,5.134707689285278320e-02,6.621780991554260254e-02,-4.942174255847930908e-02,-6.583939492702484131e-02,4.813441634178161621e-02,-5.055657401680946350e-02,-5.359822884202003479e-02,5.469500273466110229e-02,6.274086982011795044e-02,6.450065225362777710e-02,-4.698026552796363831e-02,-6.387134641408920288e-02,-6.640293449163436890e-02,-6.594099104404449463e-02,-5.940866470336914062e-02,-5.899162590503692627e-02,6.175623089075088501e-02,5.081689730286598206e-02,-5.621124058961868286e-02,5.064953863620758057e-02,-6.210437044501304626e-02,5.746108293533325195e-02,-5.833997949957847595e-02,-5.513159185647964478e-02,-4.920036345720291138e-02,-4.858735576272010803e-02,5.056054145097732544e-02,5.666119977831840515e-02,-6.272611767053604126e-02,-5.353876948356628418e-02,-4.738815128803253174e-02,6.187736615538597107e-02,-5.563995614647865295e-02,6.195073574781417847e-02,4.721654951572418213e-02,-5.299811437726020813e-02,-4.678366333246231079e-02,6.395200639963150024e-02,-5.405774712562561035e-02,-5.040901899337768555e-02,5.486869439482688904e-02,6.103003397583961487e-02,-6.385202705860137939e-02,-6.078415364027023315e-02,6.402637064456939697e-02,-5.422152578830718994e-02,5.229497700929641724e-02,-4.860389977693557739e-02,5.060968920588493347e-02,-6.167922541499137878e-02,-5.433078855276107788e-02,-5.673534050583839417e-02,6.754022091627120972e-02,6.388441473245620728e-02,-6.189597398042678833e-02,-6.021010503172874451e-02,6.606882810592651367e-02,-6.606475263833999634e-02,4.946818947792053223e-02,-6.269548088312149048e-02,-5.058091506361961365e-02,6.293480098247528076e-02,-5.711507797241210938e-02,4.961654916405677795e-02,-5.612269043922424316e-02,-5.650497972965240479e-02,-5.132018402218818665e-02,5.067976936697959900e-02,-6.517119705677032471e-02
7.546863704919815063e-02,7.539097964763641357e-02,-7.538250833749771118e-02,-6.687667220830917358e-02,7.335967570543289185e-02,6.467691808938980103e-02,-7.208468765020370483e-02,7.974759489297866821e-02,-7.121018320322036743e-02,6.309451162815093994e-02,7.568202167749404907e-02,-7.351245731115341187e-02,-7.770762592554092407e-02,-6.439823657274246216e-02,-6.553134322166442871e-02,8.002226799726486206e-02,-6.657383590936660767e-02,-7.326110452413558960e-02,-8.118306100368499756e-02,6.550097465515136719e-02,8.401263505220413208e-02,8.199308067560195923e-02,-7.571413367986679077e-02,6.781059503555297852e-02,6.452682614326477051e-02,6.398384273052215576e-02,-7.995535433292388916e-02,6.337570399045944214e-02,-6.605046987533569336e-02,-7.877954840660095215e-02,-6.940361112356185913e-02,-6.886070221662521362e-02,8.065868169069290161e-02,-6.296377629041671753e-02,6.730879843235015869e-02,-7.974245399236679077e-02,-6.206065416336059570e-02,7.310869544744491577e-02,-6.414899975061416626e-02,-6.745687872171401978e-02,-7.123317569494247437e-02,7.039873301982879639e-02,7.919894903898239136e-02,-7.849834859371185303e-02,6.600129604339599609e-02,-8.216937631368637085e-02,-7.523343712091445923e-02,-7.186764478683471680e-02,-7.739162445068359375e-02,-6.651173532009124756e-02,-7.385966926813125610e-02,7.999187707901000977e-02,6.916118413209915161e-02,-7.944881170988082886e-02,-6.747818738222122192e-02,6.251019239425659180e-02,6.387282907962799072e-02,7.375085353851318359e-02,-7.379449903964996338e-02,-7.843817770481109619e-02,6.453988701105117798e-02,7.527548819780349731e-02,-7.764223217964172363e-02,-7.812945544719696045e-02,-6.958898156881332397e-02,-6.791128963232040405e-02,-6.442898511886596680e-02,-7.000099122524261475e-02,-8.139579743146896362e-02,8.007951080799102783e-02,7.687634974718093872e-02,8.414263278245925903e-02,-7.877109199762344360e-02,7.178601622581481934e-02,-7.257385551929473877e-02,8.179145306348800659e-02,-7.424248009920120239e-02,-8.117812126874923706e-02,7.286539673805236816e-02,8.259740471839904785e-02,-8.146185427904129028e-02,-7.913281768560409546e-02,7.520874589681625366e-02,-6.475429236888885498e-02,-6.653587520122528076e-02,7.506778836250305176e-02,-7.735856622457504272e-02,6.512527167797088623e-02,6.449860334396362305e-02,7.176635414361953735e-02,7.682869583368301392e-02,7.522818446159362793e-02,-8.220747858285903931e-02,-7.656177133321762085e-02,-6.515319645404815674e-02,6.644812971353530884e-02,-8.061883598566055298e-02,7.326757162809371948e-02,8.336090296506881714e-02,7.185153663158416748e-02,7.031040638685226440e-02,6.803088635206222534e-02,-6.916377693414688110e-02,7.209766656160354614e-02,7.063264399766921997e-02,7.508958876132965088e-02,-6.441561132669448853e-02,7.289028912782669067e-02,-7.907360792160034180e-02,-6.792772561311721802e-02,6.596989184617996216e-02,-7.364817708730697632e-02,7.240296900272369385e-02,8.098174631595611572e-02,7.053507864475250244e-02,6.411398202180862427e-02,6.844162940979003906e-02,7.481316477060317993e-02,-6.868007779121398926e-02,-6.719010323286056519e-02,-6.326895207166671753e-02,-7.144717127084732056e-02,-7.231765985488891602e-02,7.172311097383499146e-02,6.600731611251831055e-02,7.544073462486267090e-02,-8.220919966697692871e-02,6.623995304107666016e-02,-8.078356087207794189e-02,8.192802965641021729e-02,-8.301210403442382812e-02,-7.742842286825180054e-02,-8.100707083940505981e-02,7.038109749555587769e-02,6.719603389501571655e-02,-6.736601144075393677e-02,6.763549894094467163e-02,7.832814753055572510e-02,-6.581393629312515259e-02,-7.297357916831970215e-02,-7.580855488777160645e-02,7.294840365648269653e-02,6.790879368782043457e-02,7.874284684658050537e-02,6.580561399459838867e-02,8.317787945270538330e-02,7.737059146165847778e-02,-7.000534236431121826e-02,-6.423005461692810059e-02,6.441209465265274048e-02,-7.847692817449569702e-02,6.262592226266860962e-02,-7.527194917201995850e-02,8.251158893108367920e-02,7.375864684581756592e-02,7.166899740695953369e-02,7.523559778928756714e-02,-6.685192137956619263e-02,-7.316699624061584473e-02,7.910221070051193237e-02,6.840677559375762939e-02,7.770828902721405029e-02,-6.370370090007781982e-02,8.020577579736709595e-02,-7.036934792995452881e-02,-6.795856356620788574e-02,6.454540044069290161e-02,7.222726941108703613e-02,-6.987902522087097168e-02,7.537661492824554443e-02,6.499662250280380249e-02,-8.033504337072372437e-02,-7.573530822992324829e-02,7.539417594671249390e-02,7.285113632678985596e-02,-7.985087484121322632e-02,8.065629750490188599e-02,-6.429954618215560913e-02,6.269999593496322632e-02,-7.169872522354125977e-02,6.435555964708328247e-02,7.109186798334121704e-02,6.744505465030670166e-02,-7.905601710081100464e-02,-6.411268562078475952e-02,7.246422767639160156e-02,6.888842582702636719e-02,-6.915586441755294800e-02,7.088930904865264893e-02,-6.616028398275375366e-02,7.189454138278961182e-02,6.738823652267456055e-02,-6.334660947322845459e-02,6.895279884338378906e-02,-6.631334871053695679e-02,8.119488507509231567e-02,8.159942924976348877e-02,8.027103543281555176e-02,-6.620264053344726562e-02,7.889992743730545044e-02
